{"learner":{"attributes":{},"feature_names":["age","sex","northing","easting"],"feature_types":["float","float","float","float"],"gradient_booster":{"model":{"gbtree_model_param":{"num_parallel_tree":"1","num_trees":"100"},"iteration_indptr":[0,1,2,3,4,5,6,7,8,9,10,11,12,13,14,15,16,17,18,19,20,21,22,23,24,25,26,27,28,29,30,31,32,33,34,35,36,37,38,39,40,41,42,43,44,45,46,47,48,49,50,51,52,53,54,55,56,57,58,59,60,61,62,63,64,65,66,67,68,69,70,71,72,73,74,75,76,77,78,79,80,81,82,83,84,85,86,87,88,89,90,91,92,93,94,95,96,97,98,99,100],"tree_info":[0,0,0,0,0,0,0,0,0,0,0,0,0,0,0,0,0,0,0,0,0,0,0,0,0,0,0,0,0,0,0,0,0,0,0,0,0,0,0,0,0,0,0,0,0,0,0,0,0,0,0,0,0,0,0,0,0,0,0,0,0,0,0,0,0,0,0,0,0,0,0,0,0,0,0,0,0,0,0,0,0,0,0,0,0,0,0,0,0,0,0,0,0,0,0,0,0,0,0,0],"trees":[{"base_weights":[-1.0031731E0,-1.0516877E0,-9.5577496E-1,-1.0545962E0,-9.205365E-1,-1.1025167E0,-1.0340762E0,-9.538508E-1,-8.9971024E-1,-1.0995998E0,-1.0179553E0,-1.0514768E0,-1.0219274E0,-1.1230563E0,-1.086151E0,-9.1388965E-1,-8.87066E-1,-9.741766E-1,-9.419461E-1,-1.1272568E0,-1.0821579E0,-1.0392907E0,-1.0043792E0,-1.0602462E0,-1.0443532E0,-1.0294298E0,-1.0161777E0,-9.206236E-1,-9.0459836E-1,-9.490368E-1,-9.3157375E-1,-1.1350942E0,-1.1139543E0,-1.0961031E0,-1.0786082E0,-8.914381E-1,-8.7808704E-1,-3.292842E-1,-1.0745595E0,-1.0118273E0,-2.9795092E-1,-3.4165597E-1,-3.3485633E-1,-9.809208E-1,-2.9032972E-1,-1.0455996E0,-3.087227E-1,-9.5459217E-1,-2.8304017E-1,-8.961843E-1,-8.8739914E-1,-3.145566E-1,-3.121554E-1,-3.0605558E-1,-1.0135293E0,-3.197037E-1,-3.170419E-1,-3.2422158E-1,-3.2044005E-1,-3.4235615E-1,-3.3877775E-1,-2.773593E-1,-9.176121E-1,-3.099841E-1,-3.082059E-1,-3.3601272E-1,-3.3299062E-1,-8.847169E-1,-8.9198667E-1,-8.786694E-1,-8.5545284E-1,3.9524454E-1,-8.5693735E-1,-8.8283706E-1,-8.7574285E-1,-2.5321278E-1,-2.6291335E-1,-8.9766365E-1,-8.878751E-1,-8.581548E-2,-2.664093E-1,-3.1596902E-1,-3.1247926E-1,-2.4312556E-1,-2.598441E-1,-3.046365E-1,-3.020086E-1,-9.5360786E-1,-9.723518E-1,-9.2231363E-1,-9.1494423E-1,-3.2453853E-1,-3.2239538E-1,-9.218096E-1,-9.327504E-1,-2.6774207E-1,-2.648669E-1,-2.6865378E-1,-2.7104893E-1,-2.7685577E-1,-2.7381933E-1,-2.2610864E-1,-2.9206306E-1,-3.6947664E-2,1.68221E-1,-2.650082E-1,-2.5365373E-1,-2.6532352E-1,-2.6831597E-1,-9.370631E-1,-9.305289E-1,-2.7548844E-1,-2.784434E-1,-2.8632864E-1,-2.8184766E-1,-1.5823172E-1,-2.7916506E-1,-9.0786016E-1,-9.0283793E-1,-8.9658403E-1,-9.0485096E-1,-2.7228394E-1,-2.6916558E-1,-2.732872E-1,-2.679665E-1,-9.1293633E-1,-9.0420526E-1,-2.6851183E-1,-2.729677E-1,-2.735795E-1,-2.8655675E-1,-3.044668E-1,-3.0314323E-1,-2.8102466E-1,-3.041655E-1,-9.221495E-1,-7.710644E-1,-2.5569183E-1,-7.337938E-2,-2.751898E-1,-2.8099608E-1,-2.9526445E-1,-9.777657E-1,-9.781187E-1,-9.220338E-1,-3.0236593E-1,-2.6153058E-1,-2.931386E-1,-3.0107364E-1,-3.295918E-1,-3.2761174E-1],"categories":[],"categories_nodes":[],"categories_segments":[],"categories_sizes":[],"default_left":[0,0,0,0,0,0,0,0,0,0,0,0,0,0,0,0,0,0,0,0,0,0,0,0,0,0,0,0,0,0,0,0,0,0,0,0,0,0,0,0,0,0,0,0,0,0,0,0,0,0,0,0,0,0,0,0,0,0,0,0,0,0,0,0,0,0,0,0,0,0,0,0,0,0,0,0,0,0,0,0,0,0,0,0,0,0,0,0,0,0,0,0,0,0,0,0,0,0,0,0,0,0,0,0,0,0,0,0,0,0,0,0,0,0,0,0,0,0,0,0,0,0,0,0,0,0,0,0,0,0,0,0,0,0,0,0,0,0,0,0,0,0,0,0,0,0,0,0,0,0,0],"id":0,"left_children":[1,5,3,9,7,13,11,17,15,19,21,23,25,31,33,27,35,43,29,41,37,45,39,55,51,63,53,61,117,47,93,59,65,149,91,49,69,-1,57,85,-1,-1,-1,141,-1,81,-1,87,-1,77,67,-1,-1,-1,131,-1,-1,-1,-1,-1,-1,-1,89,-1,-1,-1,-1,95,107,73,71,103,83,105,75,-1,-1,97,79,-1,-1,-1,-1,-1,-1,-1,-1,113,101,111,99,-1,-1,135,109,-1,-1,-1,-1,-1,-1,-1,-1,-1,-1,-1,-1,-1,-1,133,115,-1,-1,-1,-1,-1,-1,125,119,123,121,-1,-1,-1,-1,129,127,-1,-1,-1,-1,-1,-1,-1,-1,139,137,-1,-1,-1,-1,-1,143,147,145,-1,-1,-1,-1,-1,-1],"loss_changes":[8.876E3,1.7065E3,6.7985E3,8.4525E2,9.97875E2,1.638125E2,2.98375E2,1.3309375E2,1.58E2,1.0990625E2,8.09375E1,3.53125E1,3.5E1,2.25625E1,1.93125E1,2.528125E1,1.7625E1,7.890625E0,2.478125E1,1.015625E1,1.5421875E1,6.0234375E0,1.34375E1,3.78125E0,4.0625E0,1.84375E0,3.9375E0,1.984375E0,1.875E-1,5.515625E0,7.734375E-1,2.0390625E0,1.765625E0,1.5625E-2,7.96875E-1,5.25E0,1.2578125E0,0E0,2.6015625E0,9.0625E-1,0E0,0E0,0E0,7.03125E-2,0E0,9.6875E-1,0E0,8.75E-1,0E0,9.765625E-1,1.296875E0,0E0,0E0,0E0,1.5625E-1,0E0,0E0,0E0,0E0,0E0,0E0,0E0,8.75E-1,0E0,0E0,0E0,0E0,7.421875E-1,3.4375E-1,1.0546875E0,7.5529785E0,5.229781E-1,9.6069336E-1,4.5703125E-1,1.0234375E0,0E0,0E0,7.421875E-1,1.8046875E0,0E0,0E0,0E0,0E0,0E0,0E0,0E0,0E0,2.421875E-1,6.71875E-1,3.046875E-1,6.953125E-1,0E0,0E0,7.421875E-2,3.359375E-1,0E0,0E0,0E0,0E0,0E0,0E0,0E0,0E0,0E0,0E0,0E0,0E0,0E0,0E0,8.984375E-2,2.265625E-1,0E0,0E0,0E0,0E0,0E0,0E0,3.125E-1,6.25E-1,5.3515625E-1,1.0078125E0,0E0,0E0,0E0,0E0,2.1484375E-1,1.046875E0,0E0,0E0,0E0,0E0,0E0,0E0,0E0,0E0,2.1679688E-1,1.5284004E0,0E0,0E0,0E0,0E0,0E0,1.015625E-1,2.96875E-1,5.8236694E-1,0E0,0E0,0E0,0E0,0E0,0E0],"parents":[2147483647,0,0,2,2,1,1,4,4,3,3,6,6,5,5,8,8,7,7,9,9,10,10,11,11,12,12,15,15,18,18,13,13,14,14,16,16,20,20,22,22,19,19,17,17,21,21,29,29,35,35,24,24,26,26,23,23,38,38,31,31,27,27,25,25,32,32,50,50,36,36,70,70,69,69,74,74,49,49,78,78,45,45,72,72,39,39,47,47,62,62,34,34,30,30,67,67,77,77,90,90,88,88,71,71,73,73,68,68,94,94,89,89,87,87,110,110,28,28,118,118,120,120,119,119,117,117,126,126,125,125,54,54,109,109,93,93,136,136,135,135,43,43,142,142,144,144,143,143,33,33],"right_children":[2,6,4,10,8,14,12,18,16,20,22,24,26,32,34,28,36,44,30,42,38,46,40,56,52,64,54,62,118,48,94,60,66,150,92,50,70,-1,58,86,-1,-1,-1,142,-1,82,-1,88,-1,78,68,-1,-1,-1,132,-1,-1,-1,-1,-1,-1,-1,90,-1,-1,-1,-1,96,108,74,72,104,84,106,76,-1,-1,98,80,-1,-1,-1,-1,-1,-1,-1,-1,114,102,112,100,-1,-1,136,110,-1,-1,-1,-1,-1,-1,-1,-1,-1,-1,-1,-1,-1,-1,134,116,-1,-1,-1,-1,-1,-1,126,120,124,122,-1,-1,-1,-1,130,128,-1,-1,-1,-1,-1,-1,-1,-1,140,138,-1,-1,-1,-1,-1,144,148,146,-1,-1,-1,-1,-1,-1],"split_conditions":[1E0,2.1E1,2.3E1,1E1,4.5E1,9E0,4.4E1,3.1E1,6.1E1,4E0,1.5E1,3.1E1,5.8E1,4E0,1.4E1,5.4E1,7.7E1,2.7E1,3.9E1,2E0,6E0,1.3E1,2E1,2.5E1,3.7E1,4.9E1,6.7E1,4.9E1,1.899047E5,3.5E1,3.439816E5,2E0,6E0,1.2E1,1.8E1,6.8E1,5.5371425E5,-3.292842E-1,8E0,1.8E1,-2.9795092E-1,-3.4165597E-1,-3.3485633E-1,2.5E1,-2.9032972E-1,1.1E1,-3.087227E-1,5.8017025E5,-2.8304017E-1,4.1461838E5,4.7544916E5,-3.145566E-1,-3.121554E-1,-3.0605558E-1,7.9E1,-3.197037E-1,-3.170419E-1,-3.2422158E-1,-3.2044005E-1,-3.4235615E-1,-3.3877775E-1,-2.773593E-1,1.9044448E5,-3.099841E-1,-3.082059E-1,-3.3601272E-1,-3.3299062E-1,1.736777E5,7E1,8.2E1,2.833528E5,2.709395E5,5.597361E5,5.301027E5,6.984217E4,-2.5321278E-1,-2.6291335E-1,3.135371E5,2.709395E5,-8.581548E-2,-2.664093E-1,-3.1596902E-1,-3.1247926E-1,-2.4312556E-1,-2.598441E-1,-3.046365E-1,-3.020086E-1,5.4624906E5,1.01592805E5,1.728027E5,3.7583916E5,-3.2453853E-1,-3.2239538E-1,5.7201006E5,4.1E1,-2.6774207E-1,-2.648669E-1,-2.6865378E-1,-2.7104893E-1,-2.7685577E-1,-2.7381933E-1,-2.2610864E-1,-2.9206306E-1,-3.6947664E-2,1.68221E-1,-2.650082E-1,-2.5365373E-1,-2.6532352E-1,-2.6831597E-1,6.318002E5,5.883268E4,-2.7548844E-1,-2.784434E-1,-2.8632864E-1,-2.8184766E-1,-1.5823172E-1,-2.7916506E-1,4.9088978E5,2.5903431E5,3.723319E5,5.9E1,-2.7228394E-1,-2.6916558E-1,-2.732872E-1,-2.679665E-1,1.8788756E5,5.275818E5,-2.6851183E-1,-2.729677E-1,-2.735795E-1,-2.8655675E-1,-3.044668E-1,-3.0314323E-1,-2.8102466E-1,-3.041655E-1,3.718215E5,3.4033703E5,-2.5569183E-1,-7.337938E-2,-2.751898E-1,-2.8099608E-1,-2.9526445E-1,6.226478E5,5.8475206E5,2.540786E5,-3.0236593E-1,-2.6153058E-1,-2.931386E-1,-3.0107364E-1,-3.295918E-1,-3.2761174E-1],"split_indices":[1,0,0,0,0,0,0,0,0,0,0,0,0,0,0,0,0,0,0,0,0,0,0,0,0,0,0,0,2,0,3,0,0,0,0,0,2,0,0,0,0,0,0,0,0,0,0,3,0,2,3,0,0,0,0,0,0,0,0,0,0,0,2,0,0,0,0,2,0,0,3,3,2,2,2,0,0,2,3,0,0,0,0,0,0,0,0,3,2,2,3,0,0,2,0,0,0,0,0,0,0,0,0,0,0,0,0,0,0,3,2,0,0,0,0,0,0,3,2,3,0,0,0,0,0,2,3,0,0,0,0,0,0,0,0,2,3,0,0,0,0,0,3,3,2,0,0,0,0,0,0],"split_type":[0,0,0,0,0,0,0,0,0,0,0,0,0,0,0,0,0,0,0,0,0,0,0,0,0,0,0,0,0,0,0,0,0,0,0,0,0,0,0,0,0,0,0,0,0,0,0,0,0,0,0,0,0,0,0,0,0,0,0,0,0,0,0,0,0,0,0,0,0,0,0,0,0,0,0,0,0,0,0,0,0,0,0,0,0,0,0,0,0,0,0,0,0,0,0,0,0,0,0,0,0,0,0,0,0,0,0,0,0,0,0,0,0,0,0,0,0,0,0,0,0,0,0,0,0,0,0,0,0,0,0,0,0,0,0,0,0,0,0,0,0,0,0,0,0,0,0,0,0,0,0],"sum_hessian":[3.8602615E6,1.9076522E6,1.9526092E6,5.1324788E5,1.4393615E6,4.9087516E5,1.4167771E6,5.536633E5,8.856981E5,2.30325E5,2.8292284E5,5.824491E5,8.3432806E5,2.1764838E5,2.7322678E5,4.174701E5,4.6822803E5,2.0447167E5,3.4919162E5,8.905353E4,1.4127147E5,1.0999187E5,1.7293098E5,2.6100025E5,3.2144888E5,3.619156E5,4.7241247E5,2.4198798E5,1.7548211E5,2.0735233E5,1.4183931E5,9.365782E4,1.23990555E5,1.1773833E5,1.5548844E5,3.1483025E5,1.5339777E5,4.6513414E4,9.4758055E4,1.0384208E5,6.908891E4,4.3441105E4,4.561243E4,9.957128E4,1.049004E5,6.793409E4,4.2057773E4,1.0372337E5,1.0362896E5,1.4464128E5,1.7018897E5,1.5389552E5,1.6755334E5,1.8782042E5,2.8459203E5,1.01072445E5,1.599278E5,4.8221758E4,4.65363E4,4.5721793E4,4.7936027E4,1.0519483E5,1.3679317E5,1.2663806E5,2.3527752E5,4.8945605E4,7.5044945E4,1.0751952E5,6.266945E4,1.4951316E5,3.8846172E3,4.290936E0,3.8803264E3,6.1553586E4,8.795956E4,1.7531224E3,8.6206445E4,1.2269062E5,2.1950668E4,6.161344E0,2.1944506E4,2.3281848E4,4.465225E4,6.559631E2,3.2243633E3,6.0723016E4,4.3119066E4,9.8328445E4,5.3949165E3,4.9396043E4,8.7397125E4,8.5973305E4,6.951514E4,1.5338556E4,1.2650075E5,2.04078E4,8.711172E4,8.974624E4,3.2944375E4,1.9019518E4,6.83776E4,3.2677128E1,5.3622397E3,1.10024E0,3.190696E0,6.0679664E4,8.739206E2,1.5166478E4,4.7502973E4,4.286513E4,8.3635625E4,2.93357E4,2.0060346E4,9.286169E4,5.466762E3,5.7212477E0,8.36299E4,6.1330348E4,1.14151766E5,2.7905166E4,8.62466E4,6.3241902E4,2.3004697E4,5.239233E3,2.2665934E4,2.5569467E4,3.576088E4,1.375333E4,2.200755E4,2.4997672E4,5.7179474E2,1.9663005E5,8.7961984E4,4.2703613E4,1.6151523E2,1.5298947E4,3.960864E1,3.3777367E1,5.8312716E0,1.1513131E4,3.7858157E3,4.8561953E4,5.1009324E4,5.0671773E4,3.3755362E2,1.17615654E2,2.1993797E2,4.8812918E4,1.8588555E3,7.2328016E4,4.5410316E4],"tree_param":{"num_deleted":"0","num_feature":"4","num_nodes":"151","size_leaf_vector":"1"}},{"base_weights":[-9.2852867E-1,-9.868161E-1,-8.728963E-1,-9.9854696E-1,-8.34727E-1,-1.0476918E0,-9.646374E-1,-8.7383664E-1,-8.0857235E-1,-1.0456228E0,-9.5346993E-1,-9.856263E-1,-9.5070285E-1,-1.0759492E0,-1.0272331E0,-8.9830506E-1,-8.563761E-1,-8.26029E-1,-7.946409E-1,-1.0806371E0,-1.0237855E0,-9.72902E-1,-9.366615E-1,-9.601562E-1,-9.443014E-1,-9.965016E-1,-9.776586E-1,-1.039576E0,-1.0163804E0,-1.0911117E0,-1.0645504E0,-8.010922E-1,-7.8388375E-1,-8.329664E-1,-8.1505203E-1,-2.6047438E-1,-8.494013E-1,-1.0377595E0,-1.0097654E0,-9.0864307E-1,-8.8885343E-1,-1.0957006E0,-3.1990236E-1,-9.435141E-1,-9.2405844E-1,-9.8065776E-1,-2.8812352E-1,-8.0598056E-1,-7.9523045E-1,-2.8462097E-1,-9.409961E-1,-2.947948E-1,-9.730757E-1,-7.893976E-1,-7.781622E-1,-3.0037928E-1,-2.9722837E-1,-8.5494936E-1,-8.445443E-1,-3.209277E-1,-3.1701243E-1,-3.2951394E-1,-3.2525358E-1,-3.059404E-1,-3.0259013E-1,-3.14671E-1,-3.097164E-1,-3.1299037E-1,-3.0944616E-1,-8.100219E-1,-8.014248E-1,-2.2973014E-1,-2.4083208E-1,-2.9721043E-1,-9.754186E-1,-2.894716E-1,-9.581322E-1,-8.9456487E-1,-8.8503236E-1,-7.635205E-1,-8.448224E-1,-8.3669895E-1,-8.3009344E-1,-8.377989E-1,-8.2575077E-1,-7.865251E-1,-7.986664E-1,-1.6957623E-1,-2.39745E-1,-7.789466E-1,-7.471455E-1,2.2608955E-1,-2.2493814E-1,-9.431767E-1,-9.213275E-1,-2.4314259E-1,-2.2905631E-1,-9.139478E-1,-9.052635E-1,-2.3702486E-1,-2.3312685E-1,-2.3304264E-1,-1.4490579E-1,-9.005423E-1,-8.879043E-1,-2.642144E-1,-2.699329E-1,-3.0537048E-1,-3.0167225E-1,-8.530883E-1,-8.652533E-1,-2.665862E-1,-2.5755182E-1,-2.4993353E-1,-2.4686804E-1,-2.517068E-1,-2.4241212E-1,-2.5033814E-1,-2.5389817E-1,-8.339794E-1,-8.144597E-1,-7.732626E-1,-8.148203E-1,-2.3297487E-1,3.1113657E-3,-7.991393E-1,-7.923568E-1,-2.3935063E-1,-2.459883E-1,-2.3623334E-1,-2.2910905E-1,-9.0014005E-1,-9.2342633E-1,-2.6971003E-1,-2.8190663E-1,-2.7375785E-1,-2.5959194E-1,-2.7793777E-1,-2.7257133E-1,-2.3493479E-1,-2.3820579E-1,-9.093448E-1,-2.853576E-1,-2.7350873E-1,-1.2847018E-1,-9.445835E-1,-9.3953276E-1,-9.465826E-1,-9.2962676E-1,-1.4653817E-2,-2.7904993E-1,-2.726753E-1,-9.199079E-1,-2.5602642E-1,-2.4355255E-1,-8.5595375E-1,-8.2207054E-1,-2.4224429E-1,-2.6369986E-1,-2.4670671E-1,-2.7153403E-2,-9.6694565E-1,-2.9379156E-1,-8.3190227E-1,-8.3891344E-1,-2.5092936E-1,-2.5475666E-1,-2.5133538E-1,-2.4756421E-1,-3.306752E-1,-3.2679006E-1,-9.419884E-1,-2.8105614E-1,-2.7241775E-1,-2.8281665E-1,-8.78515E-1,-2.661591E-1,-2.7375147E-1,-2.6269922E-1,-2.4469493E-1,-2.4212752E-1,-9.2727506E-1,-9.04543E-1,-2.5609407E-1,-2.715118E-1,-2.694666E-1,-2.8603438E-1,-2.770747E-1,-2.9196858E-1,-2.9824564E-1,-2.890496E-1,-2.837575E-1,-2.9100758E-1,-9.457386E-1,-2.8112185E-1,-9.593656E-1,-9.541136E-1,-2.9233834E-1,-9.521606E-1,-2.817033E-1,-2.8663936E-1,-9.623863E-1,-9.566418E-1,-2.8795686E-1,-2.9086617E-1,-2.79829E-1,-2.8716877E-1,-9.4797325E-1,-9.372926E-1,-2.8217724E-1,-2.858063E-1,-2.8197443E-1,-2.6925945E-1,-2.7558506E-1,-2.88262E-1],"categories":[],"categories_nodes":[],"categories_segments":[],"categories_sizes":[],"default_left":[0,0,0,0,0,0,0,0,0,0,0,0,0,0,0,0,0,0,0,0,0,0,0,0,0,0,0,0,0,0,0,0,0,0,0,0,0,0,0,0,0,0,0,0,0,0,0,0,0,0,0,0,0,0,0,0,0,0,0,0,0,0,0,0,0,0,0,0,0,0,0,0,0,0,0,0,0,0,0,0,0,0,0,0,0,0,0,0,0,0,0,0,0,0,0,0,0,0,0,0,0,0,0,0,0,0,0,0,0,0,0,0,0,0,0,0,0,0,0,0,0,0,0,0,0,0,0,0,0,0,0,0,0,0,0,0,0,0,0,0,0,0,0,0,0,0,0,0,0,0,0,0,0,0,0,0,0,0,0,0,0,0,0,0,0,0,0,0,0,0,0,0,0,0,0,0,0,0,0,0,0,0,0,0,0,0,0,0,0,0,0,0,0,0,0,0,0,0,0,0,0,0,0,0,0,0,0,0,0,0,0,0,0,0,0],"id":1,"left_children":[1,5,3,9,7,13,11,15,17,19,21,25,23,29,27,39,35,33,31,41,37,45,43,75,49,55,51,67,63,61,59,47,53,81,119,-1,57,65,107,97,77,169,-1,193,93,73,-1,69,125,-1,145,-1,187,85,89,-1,-1,109,79,-1,-1,-1,-1,-1,-1,-1,-1,-1,-1,95,71,-1,-1,-1,161,-1,195,103,175,101,117,163,83,115,113,129,87,-1,-1,99,91,-1,-1,141,131,-1,-1,151,181,-1,-1,-1,-1,133,105,-1,-1,-1,-1,153,111,-1,-1,-1,-1,-1,-1,-1,-1,155,121,123,179,-1,-1,127,139,-1,-1,-1,-1,135,137,-1,-1,-1,-1,-1,-1,-1,-1,143,-1,-1,-1,147,171,191,149,-1,-1,-1,213,-1,-1,157,159,-1,-1,-1,-1,189,-1,167,165,-1,-1,-1,-1,-1,-1,173,-1,-1,-1,177,-1,-1,-1,-1,-1,185,183,-1,-1,-1,-1,-1,-1,-1,-1,-1,-1,207,-1,201,197,-1,199,-1,-1,203,205,-1,-1,-1,-1,209,211,-1,-1,-1,-1,-1,-1],"loss_changes":[9.902E3,2.0125E3,7.493125E3,7.715625E2,1.2253125E3,2.29125E2,3.1875E2,2.0440625E2,1.740625E2,1.350625E2,5.984375E1,3.68125E1,3.8875E1,2.775E1,2.9890625E1,1.8734375E1,2.2453125E1,2.3578125E1,2.709375E1,1.35546875E1,2.0445312E1,7.421875E0,7.75E0,1.625E0,4.84375E0,4.0625E0,4.796875E0,2.1875E0,2.234375E0,2.421875E0,2.765625E0,6.515625E0,4.109375E0,1.40625E0,7.109375E-1,0E0,4.0390625E0,2.203125E0,8.3984375E-1,8.90625E-1,1.484375E0,1.9140625E-1,0E0,3.90625E-2,9.707031E-1,1.828125E0,0E0,1.859375E0,6.484375E-1,0E0,2.96875E-1,0E0,8.59375E-2,1.3984375E0,1.2109375E0,0E0,0E0,8.3984375E-1,1.4765625E0,0E0,0E0,0E0,0E0,0E0,0E0,0E0,0E0,0E0,0E0,8.9453125E-1,2.4609375E0,0E0,0E0,0E0,2.0703125E-1,0E0,1.5625E-2,8.6328125E-1,1.0546875E-1,8.6517334E-1,7.65625E-1,2.0703125E-1,3E0,7.6953125E-1,8.0078125E-1,6.2109375E-1,1.5761719E0,0E0,0E0,8.75E-1,7.8762207E0,0E0,0E0,3.1591797E-1,5.390625E-1,0E0,0E0,2.734375E-1,9.375E-2,0E0,0E0,0E0,0E0,4.5117188E-1,9.013672E-1,0E0,0E0,0E0,0E0,2.6953125E-1,1.2128906E0,0E0,0E0,0E0,0E0,0E0,0E0,0E0,0E0,2.6611328E-1,1.1484375E0,2.7632446E0,1.015625E-1,0E0,0E0,6.484375E-1,3.8671875E-1,0E0,0E0,0E0,0E0,4.2626953E-1,4.21875E-1,0E0,0E0,0E0,0E0,0E0,0E0,0E0,0E0,5.788574E-1,0E0,0E0,0E0,1.0585938E0,1.71875E-1,5.859375E-2,3.618164E0,0E0,0E0,0E0,9.765625E-3,0E0,0E0,7.178955E-1,4.3225098E-1,0E0,0E0,0E0,0E0,8.203125E-2,0E0,3.6914062E-1,7.6953125E-1,0E0,0E0,0E0,0E0,0E0,0E0,1.2109375E0,0E0,0E0,0E0,7.2558594E-1,0E0,0E0,0E0,0E0,0E0,5.214844E-1,6.5625E-1,0E0,0E0,0E0,0E0,0E0,0E0,0E0,0E0,0E0,0E0,1.171875E-2,0E0,2.5E-1,8.125E-1,0E0,8.4765625E-1,0E0,0E0,2.8515625E-1,1.5625E-1,0E0,0E0,0E0,0E0,4.21875E-1,2.0996094E-1,0E0,0E0,0E0,0E0,0E0,0E0],"parents":[2147483647,0,0,2,2,1,1,4,4,3,3,6,6,5,5,7,7,8,8,9,9,10,10,12,12,11,11,14,14,13,13,18,18,17,17,16,16,20,20,15,15,19,19,22,22,21,21,31,31,24,24,26,26,32,32,25,25,36,36,30,30,29,29,28,28,37,37,27,27,47,47,70,70,45,45,23,23,40,40,58,58,33,33,82,82,53,53,86,86,54,54,90,90,44,44,69,69,39,39,89,89,79,79,77,77,104,104,38,38,57,57,110,110,84,84,83,83,80,80,34,34,120,120,121,121,48,48,125,125,85,85,94,94,103,103,131,131,132,132,126,126,93,93,141,141,50,50,145,145,148,148,97,97,109,109,119,119,155,155,156,156,74,74,81,81,164,164,163,163,41,41,146,146,171,171,78,78,175,175,122,122,98,98,182,182,181,181,52,52,161,161,147,147,43,43,76,76,196,196,198,198,195,195,201,201,202,202,193,193,207,207,208,208,152,152],"right_children":[2,6,4,10,8,14,12,16,18,20,22,26,24,30,28,40,36,34,32,42,38,46,44,76,50,56,52,68,64,62,60,48,54,82,120,-1,58,66,108,98,78,170,-1,194,94,74,-1,70,126,-1,146,-1,188,86,90,-1,-1,110,80,-1,-1,-1,-1,-1,-1,-1,-1,-1,-1,96,72,-1,-1,-1,162,-1,196,104,176,102,118,164,84,116,114,130,88,-1,-1,100,92,-1,-1,142,132,-1,-1,152,182,-1,-1,-1,-1,134,106,-1,-1,-1,-1,154,112,-1,-1,-1,-1,-1,-1,-1,-1,156,122,124,180,-1,-1,128,140,-1,-1,-1,-1,136,138,-1,-1,-1,-1,-1,-1,-1,-1,144,-1,-1,-1,148,172,192,150,-1,-1,-1,214,-1,-1,158,160,-1,-1,-1,-1,190,-1,168,166,-1,-1,-1,-1,-1,-1,174,-1,-1,-1,178,-1,-1,-1,-1,-1,186,184,-1,-1,-1,-1,-1,-1,-1,-1,-1,-1,208,-1,202,198,-1,200,-1,-1,204,206,-1,-1,-1,-1,210,212,-1,-1,-1,-1,-1,-1],"split_conditions":[1E0,2.2E1,2.1E1,1E1,4.5E1,9E0,4.4E1,3.1E1,6E1,4E0,1.5E1,3.1E1,5.7E1,4E0,1.5E1,2.6E1,3.6E1,5.4E1,7.5E1,2E0,7E0,1.3E1,1.9E1,4.8E1,6.7E1,2.7E1,3.7E1,1.3E1,2E1,2E0,7E0,6.8E1,8.2E1,4.9E1,2.644729E5,-2.6047438E-1,4E1,5E0,8E0,2.3E1,2.8E1,1E0,-3.1990236E-1,1.8E1,1.4737483E5,1.1E1,-2.8812352E-1,4.4481628E5,2.1910725E5,-2.8462097E-1,1.8208439E5,-2.947948E-1,2.0027256E5,5.201598E5,5.5371425E5,-3.0037928E-1,-2.9722837E-1,5.374421E5,5.3116824E4,-3.209277E-1,-3.1701243E-1,-3.2951394E-1,-3.2525358E-1,-3.059404E-1,-3.0259013E-1,-3.14671E-1,-3.097164E-1,-3.1299037E-1,-3.0944616E-1,5.8878706E5,1.0771232E5,-2.2973014E-1,-2.4083208E-1,-2.9721043E-1,1.8493895E5,-2.894716E-1,5.2436256E5,4.5419625E5,1.7754484E5,3.074487E5,3.5604188E5,1.8456356E5,1.9044448E5,5.911334E5,3.8841394E5,5.480542E5,9.0614016E4,-1.6957623E-1,-2.39745E-1,3.4205947E5,2.833528E5,2.2608955E-1,-2.2493814E-1,2.833528E5,3.4033703E5,-2.4314259E-1,-2.2905631E-1,2.8530316E5,2.7745303E5,-2.3702486E-1,-2.3312685E-1,-2.3304264E-1,-1.4490579E-1,4.4827925E5,5.3342425E5,-2.642144E-1,-2.699329E-1,-3.0537048E-1,-3.0167225E-1,5.7201006E5,5.436176E5,-2.665862E-1,-2.5755182E-1,-2.4993353E-1,-2.4686804E-1,-2.517068E-1,-2.4241212E-1,-2.5033814E-1,-2.5389817E-1,5.6E1,2.7745303E5,5.190755E5,4.4134666E5,-2.3297487E-1,3.1113657E-3,2.0842403E5,2.6670912E5,-2.3935063E-1,-2.459883E-1,-2.3623334E-1,-2.2910905E-1,3.3207194E5,4.2307078E5,-2.6971003E-1,-2.8190663E-1,-2.7375785E-1,-2.5959194E-1,-2.7793777E-1,-2.7257133E-1,-2.3493479E-1,-2.3820579E-1,1.4084683E5,-2.853576E-1,-2.7350873E-1,-1.2847018E-1,5.67824E5,7.5E1,1.8073753E5,7.866627E4,-1.4653817E-2,-2.7904993E-1,-2.726753E-1,5.732946E5,-2.5602642E-1,-2.4355255E-1,6.3499504E4,5.1124338E5,-2.4224429E-1,-2.6369986E-1,-2.4670671E-1,-2.7153403E-2,3.1127625E5,-2.9379156E-1,1.6460764E5,5.1740553E5,-2.5092936E-1,-2.5475666E-1,-2.5133538E-1,-2.4756421E-1,-3.306752E-1,-3.2679006E-1,2.709395E5,-2.8105614E-1,-2.7241775E-1,-2.8281665E-1,2.8793253E5,-2.661591E-1,-2.7375147E-1,-2.6269922E-1,-2.4469493E-1,-2.4212752E-1,1.01592805E5,2.9175812E5,-2.5609407E-1,-2.715118E-1,-2.694666E-1,-2.8603438E-1,-2.770747E-1,-2.9196858E-1,-2.9824564E-1,-2.890496E-1,-2.837575E-1,-2.9100758E-1,5.286751E5,-2.8112185E-1,2.8756944E5,1.30010734E5,-2.9233834E-1,1.697143E5,-2.817033E-1,-2.8663936E-1,2.2233045E5,2.9080328E5,-2.8795686E-1,-2.9086617E-1,-2.79829E-1,-2.8716877E-1,4.010856E5,3.059541E5,-2.8217724E-1,-2.858063E-1,-2.8197443E-1,-2.6925945E-1,-2.7558506E-1,-2.88262E-1],"split_indices":[1,0,0,0,0,0,0,0,0,0,0,0,0,0,0,0,0,0,0,0,0,0,0,0,0,0,0,0,0,0,0,0,0,0,3,0,0,0,0,0,0,0,0,0,2,0,0,3,2,0,2,0,3,3,2,0,0,3,2,0,0,0,0,0,0,0,0,0,0,2,2,0,0,0,2,0,3,3,2,3,3,2,2,3,3,2,2,0,0,3,3,0,0,3,3,0,0,2,3,0,0,0,0,3,3,0,0,0,0,2,3,0,0,0,0,0,0,0,0,0,3,2,2,0,0,2,2,0,0,0,0,3,2,0,0,0,0,0,0,0,0,2,0,0,0,3,0,2,2,0,0,0,3,0,0,2,2,0,0,0,0,3,0,2,3,0,0,0,0,0,0,3,0,0,0,3,0,0,0,0,0,2,3,0,0,0,0,0,0,0,0,0,0,3,0,2,2,0,2,0,0,2,2,0,0,0,0,3,2,0,0,0,0,0,0],"split_type":[0,0,0,0,0,0,0,0,0,0,0,0,0,0,0,0,0,0,0,0,0,0,0,0,0,0,0,0,0,0,0,0,0,0,0,0,0,0,0,0,0,0,0,0,0,0,0,0,0,0,0,0,0,0,0,0,0,0,0,0,0,0,0,0,0,0,0,0,0,0,0,0,0,0,0,0,0,0,0,0,0,0,0,0,0,0,0,0,0,0,0,0,0,0,0,0,0,0,0,0,0,0,0,0,0,0,0,0,0,0,0,0,0,0,0,0,0,0,0,0,0,0,0,0,0,0,0,0,0,0,0,0,0,0,0,0,0,0,0,0,0,0,0,0,0,0,0,0,0,0,0,0,0,0,0,0,0,0,0,0,0,0,0,0,0,0,0,0,0,0,0,0,0,0,0,0,0,0,0,0,0,0,0,0,0,0,0,0,0,0,0,0,0,0,0,0,0,0,0,0,0,0,0,0,0,0,0,0,0,0,0,0,0,0,0],"sum_hessian":[3.0538982E6,1.4913531E6,1.5625451E6,3.6406E5,1.1984851E6,3.9823534E5,1.0931179E6,4.8027978E5,7.182053E5,1.7807083E5,1.8598917E5,4.36129E5,6.569888E5,1.6722081E5,2.3101453E5,1.9998227E5,2.8029753E5,3.187461E5,3.9945922E5,6.838059E4,1.0969024E5,8.62357E4,9.975347E4,2.6520188E5,3.9178694E5,1.8436195E5,2.5176706E5,1.0804156E5,1.2297298E5,7.172245E4,9.549837E4,2.4965878E5,1.4980045E5,1.9526466E5,1.23481445E5,1.036882E5,1.7660933E5,5.4898617E4,5.479163E4,9.546694E4,1.0451533E5,3.325951E4,3.5121082E4,6.457091E4,3.5182562E4,5.315315E4,3.3082555E4,1.3605855E5,1.1360024E5,1.6717767E5,2.2460928E5,1.2042006E5,1.31347E5,7.621529E4,7.358516E4,1.0066831E5,8.369363E4,8.235842E4,9.42509E4,5.730395E4,3.8194418E4,3.4938926E4,3.6783527E4,8.521361E4,3.7759367E4,1.7792584E4,3.710603E4,7.3887195E4,3.415436E4,7.20063E4,6.405225E4,2.3551975E3,6.169705E4,1.8157234E4,3.4995914E4,7.9108305E4,1.8609356E5,4.180094E4,6.2714387E4,3.3177515E2,9.3919125E4,8.48005E4,1.1046416E5,3.9746984E4,7.071717E4,5.824904E4,1.796625E4,3.9562164E1,1.792669E4,7.174662E4,1.8385388E3,2.7391052E0,1.8357997E3,4.3544673E3,3.0828096E4,7.1294664E4,7.11636E2,3.7047094E4,5.8419848E4,1.0193701E4,6.1552918E4,3.1507938E2,1.6695776E1,2.1959443E4,1.9841496E4,1.2404509E4,7.4369873E3,1.854664E4,3.624499E4,6.983025E4,1.2528173E4,2.7777063E3,9.750467E3,1.969311E4,5.102406E4,3.8150863E4,1.5961199E3,1.1980145E4,8.193898E4,3.7045034E3,1.19776945E5,1.0579437E3,1.18719E5,1.0534891E3,4.4546785E0,4.8013414E4,6.558683E4,4.522093E4,2.7924856E3,5.5961906E4,2.28713E3,2.8174075E3,2.8010688E4,2.1167512E4,7.9193176E2,2.0597954E3,7.5761206E2,2.3210686E4,4.800003E3,1.0072303E4,5.5514523E4,8.559587E2,3.4985088E3,8.5090576E2,5.0528975E0,6.4890527E4,1.5971875E5,5.718472E4,7.7058096E3,4.7747974E0,7.7010347E3,2.0174164E4,1.687293E4,6.925133E4,5.789226E2,1.2771068E3,2.4273965E3,4.2314032E2,8.5396655E2,2.4263267E3,1.0698633E0,1.1083439E4,2.3912477E4,2.6903127E4,5.7897375E4,4.6698527E4,1.1198845E4,1.4247825E4,1.2655302E4,1.6352889E4,1.6906621E4,8.315106E4,7.656768E4,1.7861906E3,8.1364875E4,1.5737387E4,4.6977E4,1.1931879E3,1.4544199E4,1.0711804E5,1.1600961E4,1.8109384E3,5.6608906E4,5.632903E2,5.6045617E4,8.74984E2,9.359544E2,4.231238E2,1.30923875E5,1.2140282E3,9.869411E3,5.5511113E4,1.6736024E3,4.7887242E4,1.6683668E4,1.4220738E5,4.3886188E4,3.7997458E3,4.008644E4,8.1067363E3,3.1979703E4,6.7262914E4,7.494447E4,4.9813992E4,1.744892E4,1.8376097E3,7.310686E4,3.77801E4,1.0107141E4,1.4801604E4,2.2978496E4,9.460601E3,6.4653973E2,1.6380101E4,4.9282944E2],"tree_param":{"num_deleted":"0","num_feature":"4","num_nodes":"215","size_leaf_vector":"1"}},{"base_weights":[-8.5635394E-1,-9.2688006E-1,-7.9105675E-1,-9.408782E-1,-7.475164E-1,-1.0026873E0,-8.9987636E-1,-7.985284E-1,-7.2199094E-1,-1.0067548E0,-8.904618E-1,-9.265473E-1,-8.8353145E-1,-1.0384636E0,-9.7710735E-1,-7.4105245E-1,-7.033452E-1,-8.2251954E-1,-7.797095E-1,-1.0452883E0,-9.784067E-1,-9.191584E-1,-8.690166E-1,-8.959603E-1,-8.7560743E-1,-9.9379724E-1,-9.625155E-1,-1.0591097E0,-1.0230503E0,-9.378727E-1,-9.1574675E-1,-7.535269E-1,-7.32536E-1,-7.095076E-1,-6.8986434E-1,-8.3606553E-1,-8.1264174E-1,-1.064658E0,-1.0270293E0,-7.900109E-1,-7.70925E-1,-9.9731064E-1,-9.662524E-1,-9.363856E-1,-9.071928E-1,-8.789958E-1,-8.5670704E-1,-7.397658E-1,-7.2609067E-1,-2.8421494E-1,-9.317858E-1,-7.1569216E-1,-7.034407E-1,-2.6475683E-1,-8.7198126E-1,-3.088553E-1,-3.0400023E-1,-3.2057884E-1,-3.1503057E-1,-9.209004E-1,-9.111722E-1,-2.9048583E-1,-2.8667352E-1,-6.9667494E-1,-6.851038E-1,-9.0377593E-1,-2.6815E-1,-7.481046E-1,-7.3558605E-1,-3.0000174E-1,-2.9614276E-1,-2.2229125E-1,-2.2823869E-1,-9.717329E-1,-2.8650427E-1,-7.0033294E-1,-7.094873E-1,-2.0961873E-1,-2.1474251E-1,-7.942123E-1,-7.836133E-1,-8.1905055E-1,-8.0848056E-1,-2.1290036E-1,-2.0928611E-1,-1.9810967E-1,-2.2079961E-1,-2.7397373E-1,-8.985474E-1,-7.5117254E-1,-7.596646E-1,-6.937666E-1,-6.8180954E-1,-1.8372011E-1,-2.0499107E-1,-7.5195366E-1,-7.8535E-1,-2.4484909E-1,-2.3497583E-1,-7.516202E-1,-7.094029E-1,-2.1820776E-1,-1.8372747E-1,-8.737638E-1,-8.668276E-1,-2.0760925E-1,-2.2596897E-1,-7.665582E-1,-7.7499497E-1,-7.2107613E-1,-7.1292514E-1,-2.0399396E-1,-2.141894E-1,-2.1703853E-1,-2.083745E-1,-6.9014394E-1,-7.023697E-1,-2.8632662E-1,-2.1059866E-1,-5.1959664E-1,-7.7510506E-1,-2.0608221E-1,5.4855313E-2,-8.890678E-1,-8.755482E-1,-2.1276249E-1,-2.0588927E-1,-8.657851E-1,-8.522157E-1,-8.5294354E-1,-7.595948E-1,-2.2673564E-1,-2.2434235E-1,-9.116947E-1,-8.9772373E-1,-9.102588E-1,-9.322902E-1,-2.6321507E-1,-8.7102246E-1,-2.6201767E-1,-2.5748152E-1,-2.51398E-1,-2.3239465E-1,-7.6603645E-1,-7.5370204E-1,-2.2731613E-1,-2.1926391E-1,-2.301064E-1,-2.0514378E-1,-9.441118E-1,-9.287162E-1,-8.282903E-1,-2.6062253E-1,-3.220268E-1,-3.1684217E-1,-8.409638E-1,-8.3134264E-1,-2.751604E-1,-9.2590344E-1,-2.8006274E-1,-9.187015E-1,-7.7739745E-1,-7.6431966E-1,-2.4085069E-1,-2.29997E-1,-2.4329801E-1,-1.9933905E-1,-2.2948672E-1,-2.1606487E-1,-8.073315E-1,-8.2966584E-1,-2.426462E-1,-2.3148583E-1,-2.6813918E-1,-2.4582863E-1,-7.247633E-1,-7.342023E-1,-2.3330684E-1,-2.192304E-1,-2.1954295E-1,-2.1682729E-1,-9.2166096E-1,-8.964652E-1,-2.734674E-1,-2.988701E-1,-7.907423E-1,-8.006974E-1,-2.3734808E-1,-2.1432814E-1,-8.4006834E-1,-8.851766E-1,1.2323428E-1,-2.6696506E-1,-9.0345085E-1,-9.171983E-1,-2.764476E-1,-2.6961017E-1,-8.3313507E-1,-8.166923E-1,-2.4516279E-1,-2.1970849E-1,-2.483889E-1,-2.6603803E-1,-2.412112E-1,-2.349395E-1,-2.5725418E-1,-2.532421E-1,-8.3375955E-1,-8.171127E-1,-2.3602647E-1,-2.4878618E-1,-2.4760495E-1,-2.5233287E-1,-3.1025138E-1,-3.0594456E-1,-2.669346E-1,-7.836531E-1,-6.1198134E-2,-2.3916967E-1,-8.6785984E-1,-9.2996633E-1,-2.6248455E-1,-9.235759E-2,-1.9487596E-1,-2.2684531E-1,-2.6393652E-1,-8.65422E-1,-2.5605744E-1,-2.6011974E-1,-2.8400669E-1,-9.1351366E-1,-2.751164E-1,-2.69005E-1,-2.5238073E-1,-2.3053804E-1,-9.505079E-2,-2.7424774E-1,-2.5555265E-1,-2.7585036E-1,-8.744764E-1,-8.981251E-1,-2.6758206E-1,-3.0428892E-1,-2.6294002E-1,-2.586717E-1,-9.018927E-1,-8.8095456E-1,-2.6464248E-1,-3.559536E-2,-2.6710632E-1,-2.7322084E-1,-2.5623336E-1,-2.7313086E-1,-3.0106044E-1,-2.973553E-1,-2.8657788E-1,-9.210494E-1,-2.1349958E-1,-2.790611E-1,-2.943628E-1,-2.9044068E-1,-2.683951E-1,-9.3202597E-1,-2.8535494E-1,-2.794535E-1,-2.686575E-1,-2.804174E-1,-2.6845253E-1,-2.7486044E-1,-2.4818699E-1,-2.5259843E-1],"categories":[],"categories_nodes":[],"categories_segments":[],"categories_sizes":[],"default_left":[0,0,0,0,0,0,0,0,0,0,0,0,0,0,0,0,0,0,0,0,0,0,0,0,0,0,0,0,0,0,0,0,0,0,0,0,0,0,0,0,0,0,0,0,0,0,0,0,0,0,0,0,0,0,0,0,0,0,0,0,0,0,0,0,0,0,0,0,0,0,0,0,0,0,0,0,0,0,0,0,0,0,0,0,0,0,0,0,0,0,0,0,0,0,0,0,0,0,0,0,0,0,0,0,0,0,0,0,0,0,0,0,0,0,0,0,0,0,0,0,0,0,0,0,0,0,0,0,0,0,0,0,0,0,0,0,0,0,0,0,0,0,0,0,0,0,0,0,0,0,0,0,0,0,0,0,0,0,0,0,0,0,0,0,0,0,0,0,0,0,0,0,0,0,0,0,0,0,0,0,0,0,0,0,0,0,0,0,0,0,0,0,0,0,0,0,0,0,0,0,0,0,0,0,0,0,0,0,0,0,0,0,0,0,0,0,0,0,0,0,0,0,0,0,0,0,0,0,0,0,0,0,0,0,0,0,0,0,0,0,0,0,0,0,0,0,0,0,0,0,0,0,0,0,0,0,0,0,0,0,0,0,0,0,0,0,0,0,0,0,0],"id":2,"left_children":[1,5,3,9,7,13,11,17,15,19,21,29,23,27,25,31,33,35,39,37,41,43,45,65,53,69,61,57,55,49,59,89,47,51,63,155,81,153,213,79,107,253,73,149,133,123,127,67,175,-1,261,109,75,-1,103,-1,-1,-1,-1,157,135,-1,-1,115,91,87,-1,71,85,-1,-1,-1,-1,259,-1,83,77,-1,-1,185,95,197,169,-1,-1,-1,-1,-1,181,99,143,105,93,-1,-1,223,97,-1,-1,131,101,-1,-1,137,225,-1,-1,161,119,113,111,-1,-1,-1,-1,125,117,-1,-1,121,141,-1,-1,215,239,-1,-1,151,129,205,165,-1,-1,193,245,251,255,-1,139,-1,-1,-1,-1,147,145,-1,-1,-1,-1,229,219,233,-1,-1,-1,189,207,-1,159,-1,237,163,167,-1,-1,-1,-1,-1,-1,171,173,-1,-1,-1,-1,179,177,-1,-1,-1,-1,183,267,-1,-1,187,203,-1,-1,269,191,-1,-1,231,195,-1,-1,201,199,-1,-1,-1,-1,-1,-1,-1,-1,211,209,-1,-1,-1,-1,-1,-1,-1,217,-1,-1,221,257,-1,-1,-1,-1,-1,227,-1,-1,-1,235,-1,-1,-1,-1,-1,-1,-1,-1,243,241,-1,-1,-1,-1,249,247,-1,-1,-1,-1,-1,-1,-1,-1,-1,265,-1,-1,-1,-1,-1,263,-1,-1,-1,-1,-1,-1,-1,-1],"loss_changes":[1.1163875E4,2.3849375E3,8.2111875E3,9.405625E2,1.2694375E3,2.79125E2,3.73875E2,1.4621875E2,2.305625E2,1.3320312E2,9.803125E1,3.909375E1,5.16875E1,3.9515625E1,4.2515625E1,3.3609375E1,2.68125E1,1.8453125E1,1.5890625E1,1.7320312E1,1.5296875E1,1.3308594E1,1.05390625E1,2.640625E0,7.390625E0,2.4453125E0,2.8828125E0,3.5351562E0,3.546875E0,8.34375E0,3.125E0,1.3125E0,8.3671875E0,7.953125E0,2.8710938E0,6.9921875E-1,1.546875E0,7.519531E-1,3.2617188E-1,1.6328125E0,1.15625E0,5.859375E-2,1.7304688E0,7.890625E-1,9.0625E-1,9.84375E-1,9.453125E-1,2.5859375E0,5.5078125E-1,0E0,3.125E-2,1.1484375E0,1.6445312E0,0E0,1.203125E0,0E0,0E0,0E0,0E0,6.015625E-1,8.59375E-1,0E0,0E0,1.0898438E0,1.2597656E0,1.3710938E0,0E0,2.1503906E0,1.3769531E0,0E0,0E0,0E0,0E0,3.7109375E-2,0E0,1.4140625E0,2.1230469E0,0E0,0E0,5.058594E-1,1.2421875E0,4.0039062E-1,5.546875E-1,0E0,0E0,0E0,0E0,0E0,5.488281E-1,1.2265625E0,7.9296875E-1,1.2011719E0,4.15625E0,0E0,0E0,2.635498E-1,1.4003906E0,0E0,0E0,9.140625E-1,1.3271484E0,0E0,0E0,8.125E-1,2.421875E-1,0E0,0E0,5.605469E-1,1.0292969E0,1.8847656E0,2.0390625E0,0E0,0E0,0E0,0E0,9.6484375E-1,1.4609375E0,0E0,0E0,3.0588293E0,8.066406E-1,0E0,0E0,2.7246094E-1,1.3085938E-1,0E0,0E0,7.8515625E-1,1.2128906E0,3.8085938E-1,5.589447E-1,0E0,0E0,4.140625E-1,1.23046875E-1,7.03125E-2,5.859375E-2,0E0,1.984375E0,0E0,0E0,0E0,0E0,8.828125E-1,1.1601562E0,0E0,0E0,0E0,0E0,2.3535156E-1,2.705078E-1,1.404419E-1,0E0,0E0,0E0,4.2578125E-1,3.7695312E-1,0E0,9.7265625E-1,0E0,1.3671875E-1,1.59375E0,5.566406E-1,0E0,0E0,0E0,0E0,0E0,0E0,1.9121094E0,9.404297E-1,0E0,0E0,0E0,0E0,6.9921875E-1,1.5424805E0,0E0,0E0,0E0,0E0,8.453369E-1,1.953125E-2,0E0,0E0,4.8828125E-1,4.0039062E-1,0E0,0E0,1.5625E-2,3.8233032E0,0E0,0E0,1.9433594E-1,4.736328E-1,0E0,0E0,5.4467773E-1,6.171875E-1,0E0,0E0,0E0,0E0,0E0,0E0,0E0,0E0,9.2578125E-1,1.017334E0,0E0,0E0,0E0,0E0,0E0,0E0,0E0,5.85022E-1,0E0,0E0,9.2225647E-1,5.7617188E-2,0E0,0E0,0E0,0E0,0E0,2.3828125E-1,0E0,0E0,0E0,1.3848877E-1,0E0,0E0,0E0,0E0,0E0,0E0,0E0,0E0,1.2890625E-1,3.0151367E-1,0E0,0E0,0E0,0E0,2.578125E-1,2.300293E0,0E0,0E0,0E0,0E0,0E0,0E0,0E0,0E0,0E0,2.4414062E-2,0E0,0E0,0E0,0E0,0E0,6.25E-2,0E0,0E0,0E0,0E0,0E0,0E0,0E0,0E0],"parents":[2147483647,0,0,2,2,1,1,4,4,3,3,6,6,5,5,8,8,7,7,9,9,10,10,12,12,14,14,13,13,11,11,15,15,16,16,17,17,19,19,18,18,20,20,21,21,22,22,32,32,29,29,33,33,24,24,28,28,27,27,30,30,26,26,34,34,23,23,47,47,25,25,67,67,42,42,52,52,76,76,39,39,36,36,75,75,68,68,65,65,31,31,64,64,92,92,80,80,96,96,89,89,100,100,54,54,91,91,40,40,51,51,110,110,109,109,63,63,116,116,108,108,119,119,45,45,115,115,46,46,128,128,99,99,44,44,60,60,103,103,138,138,120,120,90,90,144,144,143,143,43,43,127,127,37,37,35,35,59,59,158,158,107,107,161,161,130,130,162,162,82,82,169,169,170,170,48,48,176,176,175,175,88,88,181,181,79,79,185,185,155,155,190,190,133,133,194,194,81,81,198,198,197,197,186,186,129,129,156,156,208,208,207,207,38,38,123,123,216,216,150,150,219,219,95,95,104,104,226,226,149,149,193,193,151,151,230,230,160,160,124,124,240,240,239,239,134,134,246,246,245,245,135,135,41,41,136,136,220,220,73,73,50,50,262,262,256,256,182,182,189,189],"right_children":[2,6,4,10,8,14,12,18,16,20,22,30,24,28,26,32,34,36,40,38,42,44,46,66,54,70,62,58,56,50,60,90,48,52,64,156,82,154,214,80,108,254,74,150,134,124,128,68,176,-1,262,110,76,-1,104,-1,-1,-1,-1,158,136,-1,-1,116,92,88,-1,72,86,-1,-1,-1,-1,260,-1,84,78,-1,-1,186,96,198,170,-1,-1,-1,-1,-1,182,100,144,106,94,-1,-1,224,98,-1,-1,132,102,-1,-1,138,226,-1,-1,162,120,114,112,-1,-1,-1,-1,126,118,-1,-1,122,142,-1,-1,216,240,-1,-1,152,130,206,166,-1,-1,194,246,252,256,-1,140,-1,-1,-1,-1,148,146,-1,-1,-1,-1,230,220,234,-1,-1,-1,190,208,-1,160,-1,238,164,168,-1,-1,-1,-1,-1,-1,172,174,-1,-1,-1,-1,180,178,-1,-1,-1,-1,184,268,-1,-1,188,204,-1,-1,270,192,-1,-1,232,196,-1,-1,202,200,-1,-1,-1,-1,-1,-1,-1,-1,212,210,-1,-1,-1,-1,-1,-1,-1,218,-1,-1,222,258,-1,-1,-1,-1,-1,228,-1,-1,-1,236,-1,-1,-1,-1,-1,-1,-1,-1,244,242,-1,-1,-1,-1,250,248,-1,-1,-1,-1,-1,-1,-1,-1,-1,266,-1,-1,-1,-1,-1,264,-1,-1,-1,-1,-1,-1,-1,-1],"split_conditions":[1E0,2.2E1,2.1E1,9E0,4.1E1,9E0,4.3E1,3E1,6E1,4E0,1.4E1,3.2E1,5.6E1,4E0,1.5E1,4.9E1,7.7E1,2.5E1,3.5E1,2E0,6E0,1.1E1,1.8E1,4.6E1,6.4E1,1.2E1,1.9E1,2E0,7E0,2.6E1,3.7E1,3.592921E5,5.4E1,6.8E1,8.2E1,2.3E1,2.7E1,1E0,3E0,3.3E1,4.4948456E5,5E0,8E0,1E1,1.3E1,1.5E1,1.8695048E5,1.8695048E5,5.389354E5,-2.8421494E-1,5.883268E4,4.010856E5,4.8914338E5,-2.6475683E-1,7.9E1,-3.088553E-1,-3.0400023E-1,-3.2057884E-1,-3.1503057E-1,4.8914338E5,5.1589812E5,-2.9048583E-1,-2.8667352E-1,4.305166E5,3.8749047E5,1.8695048E5,-2.6815E-1,1.728027E5,1.8740934E5,-3.0000174E-1,-2.9614276E-1,-2.2229125E-1,-2.2823869E-1,3.9488597E5,-2.8650427E-1,1.8493895E5,7.1E1,-2.0961873E-1,-2.1474251E-1,3.079247E5,1.1330996E5,1.6551528E5,4.950903E5,-2.1290036E-1,-2.0928611E-1,-1.9810967E-1,-2.2079961E-1,-2.7397373E-1,3.3869006E5,3.546692E5,4.1146378E5,5.301027E5,3.9091656E5,-1.8372011E-1,-2.0499107E-1,2.0027256E5,3.3370547E5,-2.4484909E-1,-2.3497583E-1,4.5E1,4.816782E5,-2.1820776E-1,-1.8372747E-1,4.212848E5,1.21243375E5,-2.0760925E-1,-2.2596897E-1,3.6E1,7.866627E4,4.460998E5,1.0771232E5,-2.0399396E-1,-2.141894E-1,-2.1703853E-1,-2.083745E-1,3.1127625E5,7.866627E4,-2.8632662E-1,-2.1059866E-1,4E1,4.506857E5,-2.0608221E-1,5.4855313E-2,5.7201006E5,5.1589812E5,-2.1276249E-1,-2.0588927E-1,2.833528E5,6.226478E5,2E1,3.000574E5,-2.2673564E-1,-2.2434235E-1,1.9893423E5,5.297721E5,2.0027256E5,5.379567E5,-2.6321507E-1,3.970021E5,-2.6201767E-1,-2.5748152E-1,-2.51398E-1,-2.3239465E-1,5.38153E5,4.506857E5,-2.2731613E-1,-2.1926391E-1,-2.301064E-1,-2.0514378E-1,4.4134666E5,8.5188055E4,2.644729E5,-2.6062253E-1,-3.220268E-1,-3.1684217E-1,5.646935E5,4.1146378E5,-2.751604E-1,5.308148E5,-2.8006274E-1,1.05713836E5,2.5656414E5,5.7201006E5,-2.4085069E-1,-2.29997E-1,-2.4329801E-1,-1.9933905E-1,-2.2948672E-1,-2.1606487E-1,4.3613434E5,5.1589812E5,-2.426462E-1,-2.3148583E-1,-2.6813918E-1,-2.4582863E-1,1.755667E5,5.415717E5,-2.3330684E-1,-2.192304E-1,-2.1954295E-1,-2.1682729E-1,3.3535894E5,5.6491906E5,-2.734674E-1,-2.988701E-1,3.059541E5,4.6342725E5,-2.3734808E-1,-2.1432814E-1,3.5082278E5,3.1127625E5,1.2323428E-1,-2.6696506E-1,1.5396361E5,4.276446E5,-2.764476E-1,-2.6961017E-1,5.8475206E5,6.226478E5,-2.4516279E-1,-2.1970849E-1,-2.483889E-1,-2.6603803E-1,-2.412112E-1,-2.349395E-1,-2.5725418E-1,-2.532421E-1,1.9518914E5,4.3304712E5,-2.3602647E-1,-2.4878618E-1,-2.4760495E-1,-2.5233287E-1,-3.1025138E-1,-3.0594456E-1,-2.669346E-1,3.3535894E5,-6.1198134E-2,-2.3916967E-1,4.7753166E5,2.0027256E5,-2.6248455E-1,-9.235759E-2,-1.9487596E-1,-2.2684531E-1,-2.6393652E-1,3.485165E5,-2.5605744E-1,-2.6011974E-1,-2.8400669E-1,2.833528E5,-2.751164E-1,-2.69005E-1,-2.5238073E-1,-2.3053804E-1,-9.505079E-2,-2.7424774E-1,-2.5555265E-1,-2.7585036E-1,4.0069484E5,4.5419625E5,-2.6758206E-1,-3.0428892E-1,-2.6294002E-1,-2.586717E-1,4.0932675E5,4.058606E5,-2.6464248E-1,-3.559536E-2,-2.6710632E-1,-2.7322084E-1,-2.5623336E-1,-2.7313086E-1,-3.0106044E-1,-2.973553E-1,-2.8657788E-1,3.9E1,-2.1349958E-1,-2.790611E-1,-2.943628E-1,-2.9044068E-1,-2.683951E-1,1.01592805E5,-2.8535494E-1,-2.794535E-1,-2.686575E-1,-2.804174E-1,-2.6845253E-1,-2.7486044E-1,-2.4818699E-1,-2.5259843E-1],"split_indices":[1,0,0,0,0,0,0,0,0,0,0,0,0,0,0,0,0,0,0,0,0,0,0,0,0,0,0,0,0,0,0,2,0,0,0,0,0,0,0,0,3,0,0,0,0,0,2,2,3,0,2,3,3,0,0,0,0,0,0,3,2,0,0,3,3,2,0,2,2,0,0,0,0,3,0,2,0,0,0,2,2,2,2,0,0,0,0,0,3,2,2,2,3,0,0,3,3,0,0,0,3,0,0,3,2,0,0,0,2,2,2,0,0,0,0,3,2,0,0,0,3,0,0,2,2,0,0,3,3,0,2,0,0,2,3,3,2,0,2,0,0,0,0,3,3,0,0,0,0,2,2,3,0,0,0,2,2,0,3,0,2,2,2,0,0,0,0,0,0,2,2,0,0,0,0,2,3,0,0,0,0,3,3,0,0,2,2,0,0,3,3,0,0,2,2,0,0,3,3,0,0,0,0,0,0,0,0,2,2,0,0,0,0,0,0,0,3,0,0,3,3,0,0,0,0,0,3,0,0,0,3,0,0,0,0,0,0,0,0,2,3,0,0,0,0,3,2,0,0,0,0,0,0,0,0,0,0,0,0,0,0,0,2,0,0,0,0,0,0,0,0],"split_type":[0,0,0,0,0,0,0,0,0,0,0,0,0,0,0,0,0,0,0,0,0,0,0,0,0,0,0,0,0,0,0,0,0,0,0,0,0,0,0,0,0,0,0,0,0,0,0,0,0,0,0,0,0,0,0,0,0,0,0,0,0,0,0,0,0,0,0,0,0,0,0,0,0,0,0,0,0,0,0,0,0,0,0,0,0,0,0,0,0,0,0,0,0,0,0,0,0,0,0,0,0,0,0,0,0,0,0,0,0,0,0,0,0,0,0,0,0,0,0,0,0,0,0,0,0,0,0,0,0,0,0,0,0,0,0,0,0,0,0,0,0,0,0,0,0,0,0,0,0,0,0,0,0,0,0,0,0,0,0,0,0,0,0,0,0,0,0,0,0,0,0,0,0,0,0,0,0,0,0,0,0,0,0,0,0,0,0,0,0,0,0,0,0,0,0,0,0,0,0,0,0,0,0,0,0,0,0,0,0,0,0,0,0,0,0,0,0,0,0,0,0,0,0,0,0,0,0,0,0,0,0,0,0,0,0,0,0,0,0,0,0,0,0,0,0,0,0,0,0,0,0,0,0,0,0,0,0,0,0,0,0,0,0,0,0,0,0,0,0,0,0],"sum_hessian":[2.4243628E6,1.1655082E6,1.2588545E6,2.8345853E5,9.7539594E5,3.0611534E5,8.5939294E5,3.2528694E5,6.5010906E5,1.2287939E5,1.6057914E5,3.2652588E5,5.3286706E5,1.2760584E5,1.7850948E5,3.214522E5,3.2865684E5,1.4297412E5,1.823128E5,5.2067746E4,7.081165E4,6.866031E4,9.191882E4,2.074193E5,3.2544775E5,8.323719E4,9.5272305E4,5.451513E4,7.309071E4,1.5934833E5,1.6717756E5,1.3038403E5,1.9106817E5,2.2551572E5,1.0314111E5,6.025707E4,8.271706E4,2.5237652E4,2.6830092E4,8.3870375E4,9.8442414E4,2.7679797E4,4.313185E4,2.811101E4,4.05493E4,5.07258E4,4.119302E4,9.00004E4,1.0106777E5,6.212614E4,9.722218E4,1.1161713E5,1.13898586E5,1.1186682E5,2.1358094E5,4.3819047E4,2.9271668E4,2.6494729E4,2.8020398E4,7.8519125E4,8.865844E4,5.193333E4,4.3338977E4,4.237428E4,6.076683E4,4.428156E4,1.6313773E5,2.9990604E4,6.0009793E4,4.2985465E4,4.0251723E4,1.923675E4,1.07538545E4,2.8935393E4,1.4196458E4,7.5308805E4,3.858978E4,1.4323388E4,2.4266395E4,5.05505E4,3.3319875E4,3.248666E4,5.02304E4,1.6897797E4,5.8411008E4,3.3615442E2,5.9673637E4,1.5690269E4,2.859129E4,9.432425E4,3.605978E4,1.6683662E4,4.4083168E4,9.375179E2,4.314565E4,1.7552777E3,3.1564598E4,1.9867561E3,2.9577842E4,9.33073E4,1.0169569E3,8.525922E2,1.643647E2,1.5856728E5,5.5013664E4,1.6222743E4,4.6091962E2,4.758047E4,5.0861945E4,3.780199E4,7.381514E4,2.2777314E3,7.1537414E4,3.4655258E4,3.1467307E3,1.9794775E4,2.2579506E4,2.9691658E1,2.2549814E4,2.3952866E1,5.0837992E4,1.9362268E1,4.590597E0,1.2869736E4,3.7856066E4,3.2924722E3,1.6502303E4,1.3571067E4,2.7621953E4,2.7398434E4,2.2352032E2,4.4495523E4,4.8811773E4,2.7418438E4,1.3130865E4,8.502522E4,3.6332234E3,6.819793E4,9.036934E4,7.614978E4,1.4219563E4,3.529713E2,5.0485023E4,1.7370037E4,1.8689742E4,1.5864286E4,2.8254553E3,1.7156217E4,2.1382152E2,1.3942774E4,1.4168236E4,1.0124532E3,1.2558614E4,1.2376861E4,1.2860791E4,2.9492352E4,3.0764719E4,4.524848E4,3.3270645E4,1.6082961E4,1.7187684E4,8.085017E3,3.9495453E4,2.378386E3,5.706631E3,1.4023027E2,8.329004E1,3.8917848E4,5.776062E2,4.768317E4,2.5472278E3,4.5753652E4,1.929521E3,3.3875412E2,2.2084736E3,8.693262E4,1.413516E4,1.01811084E3,1.311705E4,1.9180941E4,6.775167E4,2.3263325E3,2.6264957E4,2.060413E3,2.659195E2,3.3010387E4,1.7540113E4,3.282127E4,1.8911836E2,2.8926512E4,5.658394E2,1.7354908E0,5.641039E2,1.1042686E4,1.6375752E4,1.3251121E4,3.1246301E3,4.6087905E3,2.787787E4,2.7699395E4,1.7847586E2,4.218593E3,3.9019794E2,1.4700265E4,2.8398486E3,1.7971703E4,9.4267295E3,2.6248832E4,4.5158853E3,1.3114175E3,3.2044678E3,1.2294674E4,1.3954159E4,1.3410869E4,1.3419224E4,1.2775752E4,9.398439E1,2.5180466E0,9.146635E1,2.9918716E2,1.3869049E4,2.9489197E2,4.2951946E0,7.527206E1,1.6800057E3,5.321295E3,4.9692367E4,6.0952407E3,4.3597125E4,1.2832065E4,1.1107092E3,3.6237827E3,7.4189023E3,8.212425E2,1.9121068E2,1.7316328E0,1.1089777E3,2.1573315E2,1.6971951E4,3.6178277E4,1.6777885E3,1.6012177E3,7.6570854E1,3.105653E4,5.121747E3,1.0474122E4,2.6567434E3,2.652456E3,4.287485E0,4.5886978E3,5.885424E3,2.82831E2,8.474238E4,1.3649601E4,1.4030196E4,1.1662107E3,2.4670127E3,1.832169E1,1.3850728E4,7.887032E3,2.1048361E4,6.487455E2,9.657344E4,2.4771606E3,9.409627E4,8.838393E2,1.5831733E3,2.431153E4,1.9534272E3,3.8458215E3,2.5080691E4],"tree_param":{"num_deleted":"0","num_feature":"4","num_nodes":"271","size_leaf_vector":"1"}},{"base_weights":[-7.8261596E-1,-8.667231E-1,-7.076548E-1,-8.8980705E-1,-6.6069984E-1,-9.685026E-1,-8.359401E-1,-7.2007626E-1,-6.323491E-1,-9.653107E-1,-8.2842904E-1,-8.684611E-1,-8.144867E-1,-1.012321E0,-9.3872076E-1,-6.609795E-1,-6.168304E-1,-1.0153244E0,-9.292165E-1,-7.51632E-1,-7.008405E-1,-8.6503506E-1,-8.0634785E-1,-8.896354E-1,-8.571541E-1,-8.272763E-1,-8.0419487E-1,-6.2838894E-1,-6.0557395E-1,-9.558151E-1,-9.205505E-1,-1.0405809E0,-9.9667084E-1,-7.119779E-1,-6.8527365E-1,-1.0412287E0,-9.9117535E-1,-9.5248765E-1,-9.1439795E-1,-8.648149E-1,-8.478112E-1,-7.6050615E-1,-7.383051E-1,-8.9168817E-1,-8.561162E-1,-8.2512486E-1,-7.988669E-1,-6.698323E-1,-6.552281E-1,-6.105888E-1,-5.9790826E-1,-8.3585995E-1,-8.232146E-1,-1.0058136E0,-2.950688E-1,-8.111202E-1,-8.0035245E-1,-7.206931E-1,-7.0543903E-1,-6.3396245E-1,-6.233487E-1,-8.952214E-1,-8.809768E-1,-2.9023844E-1,-9.497682E-1,-6.5214044E-1,-6.8671966E-1,-8.0292547E-1,-7.8386205E-1,-9.25805E-1,-2.73204E-1,-2.7834147E-1,-9.075354E-1,-7.6598746E-1,-7.527287E-1,-8.687585E-1,-8.495623E-1,-6.2814236E-1,-6.1813754E-1,-6.014269E-1,-5.8892226E-1,-1.664077E-1,-1.7798442E-1,-6.5959686E-1,-6.5067965E-1,-6.602707E-1,-5.867885E-1,-6.5399444E-1,-3.0459166E-1,-1.953298E-1,-2.766837E-1,-6.4063776E-1,-6.303671E-1,-1.914901E-1,-2.0843685E-1,-2.3674233E-1,-1.8901251E-1,-1.8271694E-1,-1.8689874E-1,-1.841957E-1,-1.7953128E-1,-3.159473E-1,-3.0890778E-1,6.294672E-2,-1.3932477E-1,-6.0971177E-1,-6.302573E-1,-1.9054589E-1,-1.07243106E-1,-7.7661425E-1,-8.102971E-1,-3.1416476E-1,-3.0839655E-1,-8.0615157E-1,-7.9793787E-1,-8.0991536E-1,-7.799392E-1,6.961355E-2,-2.3419212E-1,-6.581819E-1,-6.46348E-1,-2.8462708E-1,-9.232895E-1,-1.886244E-1,-1.7045933E-1,-3.0056614E-1,-2.9412368E-1,-1.9778559E-1,-2.0739521E-1,-2.1753438E-1,-1.6915937E-1,-6.97713E-1,-6.842769E-1,-2.2002263E-1,-2.0506407E-1,-2.0688505E-1,-2.146489E-1,-6.6003335E-1,-6.720403E-1,-7.868231E-1,-7.994848E-1,-2.371328E-1,-2.1335861E-1,-2.4171534E-1,-2.3863883E-1,-9.03042E-1,-8.7578845E-1,-2.6074216E-1,-8.603975E-1,-6.707381E-1,-6.915168E-1,-2.0163982E-1,-1.9075555E-1,-2.0790704E-1,-9.578567E-2,-2.739878E-1,-2.6802742E-1,-1.9465438E-1,-1.9970456E-1,-6.832386E-1,-6.555643E-1,-2.0267555E-1,-2.4837142E-1,-2.3401143E-1,-2.1872564E-1,-8.633775E-1,-2.5490615E-1,-6.5809405E-1,-7.663392E-1,-2.0855618E-1,-1.1110624E-1,-6.9326496E-1,-7.0736873E-1,-2.3460571E-1,-2.1199444E-1,-2.0639308E-1,-2.2265704E-1,-6.922831E-1,-7.3901373E-1,-7.0460856E-1,-3.947248E-1,1.23371765E-1,-1.401173E-1,-8.09143E-1,-7.384869E-1,-1.9903843E-1,-2.2800197E-1,-1.8306465E-1,-1.765582E-1,-2.439668E-1,-1.8792918E-1,-2.2135384E-1,-2.3726825E-1,-1.9254003E-1,-1.9590695E-1,-1.9406931E-1,-1.9982083E-1,-7.5426656E-1,-7.2173846E-1,-2.1087776E-1,-2.365579E-1,-8.656518E-1,-2.7292514E-1,-8.132421E-1,-8.0396265E-1,-8.0294883E-1,-8.836938E-1,-1.783602E-1,-2.7272815E-1,-7.9151684E-1,-8.141563E-1,-2.3985669E-1,-2.0688301E-1,-2.8749165E-1,-2.821107E-1,-8.738621E-1,-8.4706444E-1,-2.3099253E-1,-2.5447437E-1,-2.5606656E-1,-2.747302E-1,-2.271405E-1,-2.2136311E-1,-3.0461884E-1,-3.003374E-1,-2.4408159E-1,-2.542676E-1,-7.2217023E-1,-7.050441E-1,-1.9867228E-1,-2.1340112E-1,-2.144532E-1,-2.1767186E-1,-8.374689E-1,-8.247088E-1,-8.248898E-1,-2.0503859E-1,-1.8819687E-1,1.1307976E-1,-2.4383233E-1,-2.516823E-1,-8.359978E-1,-2.5583354E-1,-2.5130624E-1,-2.4688336E-1,-8.0615085E-1,-7.953034E-1,-2.4143489E-1,-2.599339E-1,-1.7770347E-1,-2.3883939E-1,-5.596153E-2,-8.759525E-1,-2.394238E-1,-2.6014385E-1,-2.4215731E-1,-2.3723377E-1,-8.3269E-1,-8.486044E-1,-8.939896E-1,-8.283862E-1,-8.276542E-1,-8.073523E-1,-7.9124427E-1,-2.51006E-1,-2.0902617E-1,-2.4065927E-1,-8.245547E-1,-8.1800884E-1,-8.033105E-1,-8.2111645E-1,-2.5290155E-1,-2.4521668E-1,-2.3807763E-1,-2.5205117E-1,-8.257477E-1,-8.1656426E-1,-2.4773663E-1,-2.4084906E-1,-2.4744691E-1,-2.5147116E-1,-9.325381E-1,-9.2012763E-1,-2.4387392E-1,-2.6371798E-1,-8.3447814E-1,-8.20644E-1,-2.459303E-1,-2.9623726E-1,-2.4933688E-1,-2.6029745E-1,-2.2496614E-1,-2.4929726E-1,-2.810996E-1,-2.7223134E-1,-2.762342E-1,-2.5958353E-1,-2.4260105E-1,-2.4807042E-1,-2.549536E-1,-2.5951505E-1,-9.14013E-1,-2.70287E-1,-2.6901308E-1,-9.801969E-2,-8.9603174E-1,-2.7719206E-1,-2.7020726E-1,-2.4635038E-1,-8.1975967E-1,-2.6439562E-1,-2.4692689E-1,-1.5915774E-2,-2.688756E-1,-2.7556077E-1,-8.5342765E-1,-8.465245E-1,-2.5633913E-1,-2.4360122E-1,-2.53697E-1,-2.5967768E-1,-2.3175326E-1,-2.2900724E-1,-2.3821267E-1,-3.0020887E-1,-9.5297533E-1,-9.431001E-1,-2.8306663E-1,-7.6838696E-1,-2.6111695E-1,-1.1110118E-1,-2.8797644E-1,-2.8451747E-1],"categories":[],"categories_nodes":[],"categories_segments":[],"categories_sizes":[],"default_left":[0,0,0,0,0,0,0,0,0,0,0,0,0,0,0,0,0,0,0,0,0,0,0,0,0,0,0,0,0,0,0,0,0,0,0,0,0,0,0,0,0,0,0,0,0,0,0,0,0,0,0,0,0,0,0,0,0,0,0,0,0,0,0,0,0,0,0,0,0,0,0,0,0,0,0,0,0,0,0,0,0,0,0,0,0,0,0,0,0,0,0,0,0,0,0,0,0,0,0,0,0,0,0,0,0,0,0,0,0,0,0,0,0,0,0,0,0,0,0,0,0,0,0,0,0,0,0,0,0,0,0,0,0,0,0,0,0,0,0,0,0,0,0,0,0,0,0,0,0,0,0,0,0,0,0,0,0,0,0,0,0,0,0,0,0,0,0,0,0,0,0,0,0,0,0,0,0,0,0,0,0,0,0,0,0,0,0,0,0,0,0,0,0,0,0,0,0,0,0,0,0,0,0,0,0,0,0,0,0,0,0,0,0,0,0,0,0,0,0,0,0,0,0,0,0,0,0,0,0,0,0,0,0,0,0,0,0,0,0,0,0,0,0,0,0,0,0,0,0,0,0,0,0,0,0,0,0,0,0,0,0,0,0,0,0,0,0,0,0,0,0,0,0,0,0,0,0,0,0,0,0,0,0,0,0,0,0,0,0,0,0,0,0,0,0,0,0,0,0,0,0,0,0,0,0,0,0,0,0,0,0,0,0,0,0,0,0,0,0,0,0,0,0,0,0,0,0,0,0,0,0,0,0],"id":3,"left_children":[1,5,3,9,7,13,11,19,15,17,21,23,25,31,29,47,27,35,37,41,33,43,45,61,39,51,55,59,49,63,69,111,53,57,65,101,125,213,71,147,257,73,177,145,75,261,67,137,83,105,79,233,267,223,-1,203,113,227,171,91,77,155,309,-1,325,87,131,245,109,121,-1,-1,301,167,197,201,215,123,97,99,81,-1,-1,85,119,127,129,89,103,-1,-1,93,95,-1,-1,-1,-1,-1,-1,-1,-1,-1,-1,-1,-1,187,107,-1,-1,163,189,-1,-1,115,139,297,117,-1,-1,157,193,-1,281,-1,-1,-1,-1,-1,-1,-1,-1,135,133,-1,-1,-1,-1,159,149,141,143,-1,-1,-1,-1,305,251,-1,165,151,153,-1,-1,-1,-1,-1,-1,-1,-1,161,195,-1,-1,-1,-1,299,-1,169,321,-1,-1,175,173,-1,-1,-1,-1,179,183,185,181,-1,-1,323,191,-1,-1,-1,-1,-1,-1,-1,-1,-1,-1,-1,-1,221,199,-1,-1,253,-1,209,205,255,207,-1,-1,211,225,-1,-1,-1,-1,219,217,-1,-1,-1,-1,-1,-1,-1,-1,-1,-1,231,229,-1,-1,-1,-1,241,235,239,237,-1,-1,-1,-1,243,-1,-1,-1,247,249,-1,-1,-1,-1,-1,283,-1,-1,-1,-1,259,315,303,291,285,263,265,-1,-1,-1,275,269,273,271,-1,-1,-1,-1,279,277,-1,-1,-1,-1,293,295,-1,-1,289,287,-1,-1,-1,-1,-1,-1,-1,-1,-1,-1,-1,-1,-1,-1,313,-1,-1,-1,307,-1,-1,-1,311,-1,-1,-1,-1,-1,317,319,-1,-1,-1,-1,-1,-1,-1,-1,331,327,-1,329,-1,-1,-1,-1],"loss_changes":[1.2234875E4,2.8645E3,8.775875E3,9.737969E2,1.3729062E3,2.7617188E2,4.891875E2,1.5951562E2,2.4492188E2,1.6928125E2,9.3078125E1,6.60625E1,5.50625E1,3.696875E1,3.8390625E1,9.4453125E0,4.6203125E1,2.3683594E1,1.8023438E1,1.1246094E1,2.790625E1,9.609375E0,9.5078125E0,3.9140625E0,1.228125E1,5.890625E0,5.59375E0,4.5625E0,6.609375E0,3.6640625E0,2.3398438E0,1.4804688E0,5.640625E0,4.9335938E0,2.8261719E0,1.5371094E0,1.3769531E0,5.996094E-1,2.2382812E0,1.1640625E0,2.7734375E-1,1.9765625E0,7.890625E-1,1.1806641E0,1.9707031E0,2.5683594E-1,2.5273438E0,1.2109375E0,1.9101562E0,1.5039062E0,1.9160156E0,3.9453125E-1,2.1875E-1,4.453125E-1,0E0,6.171875E-1,1.46875E0,4.3359375E-1,7.949219E-1,1.609375E0,1.9335938E0,1.1015625E0,7.6171875E-2,0E0,1.953125E-2,1.6552734E0,1.2851562E0,3.59375E-1,1.4907227E0,1.4296875E0,0E0,0E0,1.25E-1,8.28125E-1,6.386719E-1,6.298828E-1,5.703125E-1,1.3964844E0,1.5878906E0,1.5683594E0,2.6933594E0,0E0,0E0,2.5566406E0,1.453125E0,1.3632812E0,1.3630219E0,1.6224365E0,1.5068786E0,0E0,0E0,3.2636719E0,2.3222656E0,0E0,0E0,0E0,0E0,0E0,0E0,0E0,0E0,0E0,0E0,0E0,0E0,7.6171875E-1,5.9836426E0,0E0,0E0,8.486328E-1,7.591553E-1,0E0,0E0,3.734375E0,1.203125E0,1.484375E-1,4.1435547E0,0E0,0E0,1.0429688E0,6.933594E-1,0E0,1.953125E-1,0E0,0E0,0E0,0E0,0E0,0E0,0E0,0E0,1.2133789E0,1.4238281E0,0E0,0E0,0E0,0E0,1.0146484E0,1.1152344E0,3.0214844E0,1.7070312E0,0E0,0E0,0E0,0E0,1.0205078E-1,3.544922E-1,0E0,8.4765625E-1,2.4160156E0,1.9498291E0,0E0,0E0,0E0,0E0,0E0,0E0,0E0,0E0,1.9361572E0,6.484375E-1,0E0,0E0,0E0,0E0,1.3867188E-1,0E0,1.0346146E0,5.2734375E-2,0E0,0E0,1.4348145E0,1.9804688E0,0E0,0E0,0E0,0E0,2.0010986E0,8.5546875E-1,8.530884E-1,1.7656212E0,0E0,0E0,2.3284912E-2,7.265625E-1,0E0,0E0,0E0,0E0,0E0,0E0,0E0,0E0,0E0,0E0,0E0,0E0,5.527344E-1,9.491577E-1,0E0,0E0,3.544922E-1,0E0,6.328125E-1,8.4375E-1,3.4179688E-1,1.1574707E0,0E0,0E0,1.5993652E0,4.453125E-1,0E0,0E0,0E0,0E0,9.042969E-1,1.1367188E0,0E0,0E0,0E0,0E0,0E0,0E0,0E0,0E0,0E0,0E0,4.1015625E-1,4.8986816E-1,0E0,0E0,0E0,0E0,4.765625E-1,6.9384766E-1,6.279297E-1,1.1157614E0,0E0,0E0,0E0,0E0,3.75E-1,0E0,0E0,0E0,1.65625E0,1.5751953E0,0E0,0E0,0E0,0E0,0E0,1.821289E-1,0E0,0E0,0E0,0E0,3.5205078E-1,5.859375E-2,1.0684204E-1,1.706543E-1,1.7578125E-1,5.6933594E-1,1.2011719E0,0E0,0E0,0E0,3.046875E-1,5.4296875E-1,9.970703E-1,1.0810547E0,0E0,0E0,0E0,0E0,3.28125E-1,1.0234375E0,0E0,0E0,0E0,0E0,1.694336E-1,1.6796875E-1,0E0,0E0,2.861328E-1,4.9609375E-1,0E0,0E0,0E0,0E0,0E0,0E0,0E0,0E0,0E0,0E0,0E0,0E0,0E0,0E0,7.03125E-2,0E0,0E0,0E0,9.277344E-1,0E0,0E0,0E0,5.338898E-1,0E0,0E0,0E0,0E0,0E0,3.0859375E-1,1.7578125E-1,0E0,0E0,0E0,0E0,0E0,0E0,0E0,0E0,5.859375E-3,3.9257812E-1,0E0,1.37784E0,0E0,0E0,0E0,0E0],"parents":[2147483647,0,0,2,2,1,1,4,4,3,3,6,6,5,5,8,8,9,9,7,7,10,10,11,11,12,12,16,16,14,14,13,13,20,20,17,17,18,18,24,24,19,19,21,21,22,22,15,15,28,28,25,25,32,32,26,26,33,33,27,27,23,23,29,29,34,34,46,46,30,30,38,38,41,41,44,44,60,60,50,50,80,80,48,48,83,83,65,65,87,87,59,59,91,91,92,92,78,78,79,79,35,35,88,88,49,49,106,106,68,68,31,31,56,56,113,113,116,116,84,84,69,69,77,77,36,36,85,85,86,86,66,66,132,132,131,131,47,47,114,114,139,139,140,140,43,43,39,39,138,138,149,149,150,150,61,61,119,119,137,137,159,159,109,109,148,148,73,73,167,167,58,58,172,172,171,171,42,42,177,177,180,180,178,178,179,179,105,105,110,110,184,184,120,120,160,160,74,74,198,198,75,75,55,55,204,204,206,206,203,203,209,209,37,37,76,76,216,216,215,215,197,197,53,53,210,210,57,57,228,228,227,227,51,51,234,234,236,236,235,235,233,233,241,241,67,67,245,245,246,246,146,146,201,201,205,205,40,40,257,257,45,45,262,262,263,263,52,52,268,268,270,270,269,269,267,267,276,276,275,275,122,122,252,252,261,261,286,286,285,285,260,260,281,281,282,282,115,115,165,165,72,72,259,259,145,145,305,305,62,62,309,309,301,301,258,258,315,315,316,316,168,168,183,183,64,64,326,326,328,328,325,325],"right_children":[2,6,4,10,8,14,12,20,16,18,22,24,26,32,30,48,28,36,38,42,34,44,46,62,40,52,56,60,50,64,70,112,54,58,66,102,126,214,72,148,258,74,178,146,76,262,68,138,84,106,80,234,268,224,-1,204,114,228,172,92,78,156,310,-1,326,88,132,246,110,122,-1,-1,302,168,198,202,216,124,98,100,82,-1,-1,86,120,128,130,90,104,-1,-1,94,96,-1,-1,-1,-1,-1,-1,-1,-1,-1,-1,-1,-1,188,108,-1,-1,164,190,-1,-1,116,140,298,118,-1,-1,158,194,-1,282,-1,-1,-1,-1,-1,-1,-1,-1,136,134,-1,-1,-1,-1,160,150,142,144,-1,-1,-1,-1,306,252,-1,166,152,154,-1,-1,-1,-1,-1,-1,-1,-1,162,196,-1,-1,-1,-1,300,-1,170,322,-1,-1,176,174,-1,-1,-1,-1,180,184,186,182,-1,-1,324,192,-1,-1,-1,-1,-1,-1,-1,-1,-1,-1,-1,-1,222,200,-1,-1,254,-1,210,206,256,208,-1,-1,212,226,-1,-1,-1,-1,220,218,-1,-1,-1,-1,-1,-1,-1,-1,-1,-1,232,230,-1,-1,-1,-1,242,236,240,238,-1,-1,-1,-1,244,-1,-1,-1,248,250,-1,-1,-1,-1,-1,284,-1,-1,-1,-1,260,316,304,292,286,264,266,-1,-1,-1,276,270,274,272,-1,-1,-1,-1,280,278,-1,-1,-1,-1,294,296,-1,-1,290,288,-1,-1,-1,-1,-1,-1,-1,-1,-1,-1,-1,-1,-1,-1,314,-1,-1,-1,308,-1,-1,-1,312,-1,-1,-1,-1,-1,318,320,-1,-1,-1,-1,-1,-1,-1,-1,332,328,-1,330,-1,-1,-1,-1],"split_conditions":[1E0,2E1,2E1,9E0,4E1,8E0,4.3E1,2.8E1,5.4E1,4E0,1.3E1,2.8E1,5.8E1,3E0,1.4E1,4.6E1,6.8E1,2E0,6E0,2.5E1,3.5E1,1E1,1.5E1,2.5E1,3.6E1,4.8E1,6.6E1,6E1,7.9E1,1E1,1.8E1,2E0,6E0,3.1E1,2.969426E5,1E0,3E0,3.3358953E5,7E0,3.2E1,1.11577E5,2.3E1,2.5117306E5,2.8646962E5,1.1E1,4.208111E5,1.9E1,3.723319E5,2.540786E5,5.939408E5,8.8E1,4.1860456E5,5.286751E5,4E0,-2.950688E-1,3.919485E5,1.829599E5,5.5389256E5,1.636543E5,1.899047E5,4.427812E5,1.2783884E5,2.1674761E5,-2.9023844E-1,3.356872E5,5.1124338E5,1.7230827E5,3.5022253E5,5.2436256E5,1.3433373E5,-2.73204E-1,-2.7834147E-1,8E0,2.0027256E5,5.824589E5,4.490696E5,3.3370547E5,5.8878706E5,5.0394694E5,1.6460764E5,1.2566001E5,-1.664077E-1,-1.7798442E-1,6.1645306E5,4.9E1,2.4425236E5,1.3217214E5,3.833149E5,5.2344962E5,-1.953298E-1,-2.766837E-1,1.8788756E5,2.0027256E5,-1.914901E-1,-2.0843685E-1,-2.3674233E-1,-1.8901251E-1,-1.8271694E-1,-1.8689874E-1,-1.841957E-1,-1.7953128E-1,-3.159473E-1,-3.0890778E-1,6.294672E-2,-1.3932477E-1,5.824589E5,3.5022253E5,-1.9054589E-1,-1.07243106E-1,5.12077E5,6.318002E5,-3.1416476E-1,-3.0839655E-1,5.6491906E5,2.0193411E5,1.7980723E5,7.866627E4,6.961355E-2,-2.3419212E-1,3.6894697E5,5.2E1,-2.8462708E-1,1.5E1,-1.886244E-1,-1.7045933E-1,-3.0056614E-1,-2.9412368E-1,-1.9778559E-1,-2.0739521E-1,-2.1753438E-1,-1.6915937E-1,1.6261648E5,3.167453E5,-2.2002263E-1,-2.0506407E-1,-2.0688505E-1,-2.146489E-1,1.1687344E5,4.5694178E5,2.0038378E5,7.2E1,-2.371328E-1,-2.1335861E-1,-2.4171534E-1,-2.3863883E-1,5.361894E5,2.3385473E5,-2.6074216E-1,3.8931028E5,4.3304712E5,5.0394694E5,-2.0163982E-1,-1.9075555E-1,-2.0790704E-1,-9.578567E-2,-2.739878E-1,-2.6802742E-1,-1.9465438E-1,-1.9970456E-1,3.586671E5,3.6393006E5,-2.0267555E-1,-2.4837142E-1,-2.3401143E-1,-2.1872564E-1,1.3650133E5,-2.5490615E-1,2.1729661E5,2.1E1,-2.0855618E-1,-1.1110624E-1,5.824589E5,1.6551528E5,-2.3460571E-1,-2.1199444E-1,-2.0639308E-1,-2.2265704E-1,3.6160038E5,2.644729E5,7.866627E4,3.6635656E5,1.23371765E-1,-1.401173E-1,3.375132E5,5.685233E5,-1.9903843E-1,-2.2800197E-1,-1.8306465E-1,-1.765582E-1,-2.439668E-1,-1.8792918E-1,-2.2135384E-1,-2.3726825E-1,-1.9254003E-1,-1.9590695E-1,-1.9406931E-1,-1.9982083E-1,4.129596E5,6.1645306E5,-2.1087776E-1,-2.365579E-1,8.5188055E4,-2.7292514E-1,2.644729E5,5.216422E5,4.3533928E5,3.9616444E5,-1.783602E-1,-2.7272815E-1,2.7226556E5,3.8931028E5,-2.3985669E-1,-2.0688301E-1,-2.8749165E-1,-2.821107E-1,2.2387773E5,3.4033703E5,-2.3099253E-1,-2.5447437E-1,-2.5606656E-1,-2.747302E-1,-2.271405E-1,-2.2136311E-1,-3.0461884E-1,-3.003374E-1,-2.4408159E-1,-2.542676E-1,4.010856E5,1.3650133E5,-1.9867228E-1,-2.1340112E-1,-2.144532E-1,-2.1767186E-1,3.9364884E5,5.345179E5,4.6342725E5,4.6E1,-1.8819687E-1,1.1307976E-1,-2.4383233E-1,-2.516823E-1,3.4823797E5,-2.5583354E-1,-2.5130624E-1,-2.4688336E-1,3.4266866E5,2.644729E5,-2.4143489E-1,-2.599339E-1,-1.7770347E-1,-2.3883939E-1,-5.596153E-2,3.3207194E5,-2.394238E-1,-2.6014385E-1,-2.4215731E-1,-2.3723377E-1,5.3116824E4,3.8E1,3.439816E5,2.0027256E5,1.4E1,5.1589812E5,3.5740988E5,-2.51006E-1,-2.0902617E-1,-2.4065927E-1,4.3461453E5,5.339708E5,1.9317986E5,5.38153E5,-2.5290155E-1,-2.4521668E-1,-2.3807763E-1,-2.5205117E-1,4.1146378E5,5.4E1,-2.4773663E-1,-2.4084906E-1,-2.4744691E-1,-2.5147116E-1,5.367904E5,5.685233E5,-2.4387392E-1,-2.6371798E-1,3.9532703E5,4.1860456E5,-2.459303E-1,-2.9623726E-1,-2.4933688E-1,-2.6029745E-1,-2.2496614E-1,-2.4929726E-1,-2.810996E-1,-2.7223134E-1,-2.762342E-1,-2.5958353E-1,-2.4260105E-1,-2.4807042E-1,-2.549536E-1,-2.5951505E-1,1.7325461E5,-2.70287E-1,-2.6901308E-1,-9.801969E-2,5.323486E5,-2.7719206E-1,-2.7020726E-1,-2.4635038E-1,2.5157967E5,-2.6439562E-1,-2.4692689E-1,-1.5915774E-2,-2.688756E-1,-2.7556077E-1,6.0021225E5,5.1589812E5,-2.5633913E-1,-2.4360122E-1,-2.53697E-1,-2.5967768E-1,-2.3175326E-1,-2.2900724E-1,-2.3821267E-1,-3.0020887E-1,4.5945175E5,6.073755E5,-2.8306663E-1,1.3E1,-2.6111695E-1,-1.1110118E-1,-2.8797644E-1,-2.8451747E-1],"split_indices":[1,0,0,0,0,0,0,0,0,0,0,0,0,0,0,0,0,0,0,0,0,0,0,0,0,0,0,0,0,0,0,0,0,0,3,0,0,2,0,0,2,0,3,2,0,2,0,3,2,3,0,2,3,0,0,2,2,3,2,2,3,2,3,0,2,2,2,2,3,2,0,0,0,3,3,2,3,2,3,2,2,0,0,3,0,2,2,2,2,0,0,2,3,0,0,0,0,0,0,0,0,0,0,0,0,3,2,0,0,3,3,0,0,3,2,2,2,0,0,2,0,0,0,0,0,0,0,0,0,0,0,2,3,0,0,0,0,2,2,2,0,0,0,0,0,3,3,0,2,2,3,0,0,0,0,0,0,0,0,3,2,0,0,0,0,2,0,2,0,0,0,3,2,0,0,0,0,2,3,2,2,0,0,2,2,0,0,0,0,0,0,0,0,0,0,0,0,2,3,0,0,2,0,3,3,3,2,0,0,2,2,0,0,0,0,2,3,0,0,0,0,0,0,0,0,0,0,3,2,0,0,0,0,2,3,2,0,0,0,0,0,2,0,0,0,2,3,0,0,0,0,0,3,0,0,0,0,2,0,3,3,0,2,3,0,0,0,2,3,2,3,0,0,0,0,2,0,0,0,0,0,3,2,0,0,2,2,0,0,0,0,0,0,0,0,0,0,0,0,0,0,2,0,0,0,3,0,0,0,2,0,0,0,0,0,3,2,0,0,0,0,0,0,0,0,3,3,0,0,0,0,0,0],"split_type":[0,0,0,0,0,0,0,0,0,0,0,0,0,0,0,0,0,0,0,0,0,0,0,0,0,0,0,0,0,0,0,0,0,0,0,0,0,0,0,0,0,0,0,0,0,0,0,0,0,0,0,0,0,0,0,0,0,0,0,0,0,0,0,0,0,0,0,0,0,0,0,0,0,0,0,0,0,0,0,0,0,0,0,0,0,0,0,0,0,0,0,0,0,0,0,0,0,0,0,0,0,0,0,0,0,0,0,0,0,0,0,0,0,0,0,0,0,0,0,0,0,0,0,0,0,0,0,0,0,0,0,0,0,0,0,0,0,0,0,0,0,0,0,0,0,0,0,0,0,0,0,0,0,0,0,0,0,0,0,0,0,0,0,0,0,0,0,0,0,0,0,0,0,0,0,0,0,0,0,0,0,0,0,0,0,0,0,0,0,0,0,0,0,0,0,0,0,0,0,0,0,0,0,0,0,0,0,0,0,0,0,0,0,0,0,0,0,0,0,0,0,0,0,0,0,0,0,0,0,0,0,0,0,0,0,0,0,0,0,0,0,0,0,0,0,0,0,0,0,0,0,0,0,0,0,0,0,0,0,0,0,0,0,0,0,0,0,0,0,0,0,0,0,0,0,0,0,0,0,0,0,0,0,0,0,0,0,0,0,0,0,0,0,0,0,0,0,0,0,0,0,0,0,0,0,0,0,0,0,0,0,0,0,0,0,0,0,0,0,0,0,0,0,0,0,0,0,0,0,0,0,0,0],"sum_hessian":[1.940673E6,9.145399E5,1.0261332E6,2.1029975E5,8.1583344E5,2.1236275E5,7.021771E5,2.636448E5,5.521886E5,9.429227E4,1.1600748E5,2.790814E5,4.230957E5,8.59177E4,1.2644505E5,1.9408273E5,3.581059E5,3.9513508E4,5.477877E4,9.983313E4,1.6381169E5,4.363363E4,7.237385E4,9.712346E4,1.8195795E5,1.8861944E5,2.3447623E5,1.7665481E5,1.8145108E5,6.5124926E4,6.132012E4,3.0598951E4,5.531875E4,9.546552E4,6.8346164E4,1.904355E4,2.0469957E4,2.128674E4,3.3492027E4,9.9928664E4,8.202929E4,5.9894227E4,3.9938906E4,1.0915375E4,3.2718254E4,2.0588271E4,5.1785582E4,7.638817E4,1.1769456E5,1.09644336E5,7.180675E4,6.051925E4,1.28100195E5,3.2544139E4,2.2774613E4,8.359671E4,1.5087953E5,4.0875805E4,5.4589715E4,8.3830164E4,9.282465E4,5.8973973E4,3.8149492E4,2.2202875E4,4.292205E4,2.8770212E3,6.5469145E4,4.0719316E4,1.1066265E4,3.9956715E4,2.1363406E4,1.1293894E4,2.2198135E4,3.5076027E4,2.48182E4,1.1125586E4,2.1592668E4,4.8287055E4,4.453759E4,5.1553742E4,2.0253006E4,2.302347E3,1.7950658E4,5.9958812E4,5.773575E4,5.9401027E4,5.57783E2,2.8608782E3,1.6143095E1,2.8337258E3,2.7152412E1,2.9283455E4,5.4546707E4,2.8084002E4,1.1994531E3,1.06629005E2,5.444008E4,1.5566757E4,2.8970834E4,9.872656E3,4.1681086E4,9.318019E3,9.725532E3,3.7524705E0,1.2390623E1,1.0499455E5,4.649793E3,4.566509E3,8.328398E1,8.708882E3,2.3573828E3,1.9986143E4,1.0612808E4,4.425617E4,1.0662335E5,3.8673246E4,5.582926E3,3.6373267E0,5.5792886E3,2.1078146E4,3.6657605E4,3.9095476E3,3.6047168E4,4.7794727E4,4.9232745E2,1.0213357E4,1.02566E4,5.7595184E4,1.8058446E3,7.494213E1,4.8284088E2,1.1851044E4,5.36181E4,7.703054E2,5.2847797E4,8.170858E3,3.6801858E3,1.4102244E4,6.2285926E4,1.3089019E4,9.3534336E4,1.2482167E4,6.0685156E2,3.6606566E4,5.692777E4,6.335473E3,4.579902E3,5.039009E4,4.9538574E4,5.8415887E4,3.8700393E3,5.6152984E4,2.2629043E3,3.8535798E3,1.6459488E1,5.2874517E3,5.368652E4,9.429821E3,1.1648324E4,2.2527898E3,1.1849454E4,2.1449802E3,1.0780954E2,8.1093022E3,5.995795E2,3.8693184E4,1.0845393E4,1.2005863E2,3.495597E4,1.0509463E2,1.4964005E1,7.5183354E3,4.707138E4,4.3971298E2,4.6631668E4,6.7985757E3,7.1975977E2,6.2045154E2,3.9318457E4,5.944599E2,2.5991621E1,1.754694E0,2.4236927E1,2.8174506E2,3.903671E4,3.4854938E2,2.4591054E2,1.02528836E5,2.465712E3,2.3170916E3,4.029124E1,3.8580098E4,4.5661407E2,2.1860537E4,1.4797066E4,6.52715E3,5.322304E3,2.3622639E4,1.1955602E3,9.4180145E2,2.5375873E2,1.0362358E4,7.6322736E2,6.439436E4,1.920235E4,1.8972168E4,2.30182E2,2.0557486E1,2.0962453E2,2.6353337E3,6.1759027E4,2.4370427E3,1.9829102E2,1.432954E4,6.9572E3,1.9801892E3,1.9612479E4,3.063801E2,1.9306098E4,1.3482228E3,6.319665E2,2.006566E4,3.556978E3,1.0621766E4,2.1922373E4,6.078163E4,9.773994E2,3.7308992E4,3.5668135E3,4.707988E2,3.0960146E3,1.1899187E4,2.5409805E4,5.2823297E4,7.6959536E3,7.6933755E3,2.5779335E0,1.448766E0,1.1291676E0,4.16286E3,3.5305159E3,4.8243184E4,4.580115E3,4.2658625E4,5.584555E3,2.8538146E4,1.218117E4,2.7919088E4,6.190593E2,5.239429E1,1.2128775E4,1.3604094E0,4.5785415E3,2.3577208E2,1.0126587E4,1.4019722E4,4.9524463E3,4.140687E3,7.78886E4,2.5808124E2,3.8826055E3,1.7983373E4,2.6048984E3,1.699594E3,9.0530444E2,1.8326205E2,1.5163319E3,1.01750195E5,2.6349996E4,4.644083E3,2.1705912E4,3.1258113E3,1.8580102E4,3.6929358E3,9.511473E2,8.84421E4,1.3308092E4,7.9256753E3,5.3824165E3,8.240751E4,6.034595E3,9.108922E3,2.6938246E4,2.2742307E2,4.3511187E3,9.052909E3,8.930464E3,8.889676E3,4.078798E1,8.245199E3,8.077103E2,1.3396902E2,3.7486365E3,7.703606E3,1.4053164E3,2.66057E4,3.3254688E2,3.607724E4,2.5960088E3,4.31238E3,3.4380805E4,1.1115446E4,1.10826875E4,2.5627136E2,1.8098673E0,4.778794E3,1.5566792E3,4.48843E3,2.9036395E2,2.2521992E2,3.792427E4,2.2417276E2,1.047156E0,2.2964817E3,8.818965E3,2.3344354E4,5.454425E4,2.2755568E4,5.887849E2,5.221325E4,2.3309993E3,1.1302961E4,2.365301E4,2.659265E2,1.5818545E1,2.8886658E4,1.4035393E4,1.3994519E4,4.0874077E1,3.1591835E1,9.282243E0,1.1401321E4,1.7485338E4],"tree_param":{"num_deleted":"0","num_feature":"4","num_nodes":"333","size_leaf_vector":"1"}},{"base_weights":[-7.0468485E-1,-8.025584E-1,-6.213396E-1,-8.304121E-1,-5.708623E-1,-9.235162E-1,-7.64867E-1,-6.358219E-1,-5.4060644E-1,-9.3681407E-1,-7.633593E-1,-8.0188304E-1,-7.4014986E-1,-9.853146E-1,-8.8582635E-1,-5.693057E-1,-5.2523875E-1,-1.0057334E0,-9.003443E-1,-6.6676575E-1,-6.127995E-1,-8.079124E-1,-7.303294E-1,-8.2009643E-1,-7.8466123E-1,-9.107332E-1,-8.6369807E-1,-1.0226918E0,-9.6485585E-1,-7.549897E-1,-7.302617E-1,-5.37201E-1,-5.136664E-1,-9.229728E-1,-8.6881864E-1,-8.356371E-1,-7.894848E-1,-6.243264E-1,-5.9906E-1,-6.815971E-1,-6.562275E-1,-7.5388217E-1,-7.209975E-1,-8.324664E-1,-8.103736E-1,-1.023652E0,-2.9179507E-1,-5.756296E-1,-5.59175E-1,-5.201692E-1,-5.037552E-1,-7.3765194E-1,-7.247999E-1,-9.7628856E-1,-2.8456947E-1,-2.8379425E-1,-9.1192883E-1,-2.775718E-1,-9.032461E-1,-8.724644E-1,-8.5294735E-1,-7.9225516E-1,-7.7889746E-1,-5.4343385E-1,-5.330304E-1,-5.740309E-1,-5.994842E-1,-8.069149E-1,-7.805131E-1,-7.585851E-1,-7.4702305E-1,-5.2903837E-1,-5.1619273E-1,-1.4574598E-1,-1.5530121E-1,-7.2816324E-1,-7.109969E-1,-5.0482804E-1,-4.6269748E-1,4.316775E-2,-1.4045566E-1,-6.1942637E-1,-6.325234E-1,-6.044682E-1,-6.249596E-1,-7.4126273E-1,-6.3135564E-1,-1.9758007E-1,-1.7999196E-1,-6.6214436E-1,-6.477681E-1,-5.746859E-1,-5.3319025E-1,-6.969856E-1,-7.384311E-1,-3.1160718E-1,-3.0276194E-1,-1.9010252E-1,-1.8487209E-1,-1.5851003E-1,-1.9378275E-1,-7.776291E-1,-8.0861765E-1,-3.1165272E-1,-3.0450258E-1,-5.771481E-1,-5.5733603E-1,-5.9966844E-1,-5.401127E-1,-5.989832E-1,-6.6232485E-1,-8.2695866E-1,-7.6003003E-1,-2.3990263E-1,-2.0148699E-1,-4.9151295E-1,-5.57862E-1,-1.04376145E-1,-1.5780815E-1,4.8872516E-2,-5.9986204E-1,-2.0880546E-1,2.576297E-1,-5.209739E-1,-5.347287E-1,-1.6417359E-1,-1.5391195E-1,-1.6114424E-1,-1.5684715E-1,-1.8325832E-1,-1.7882587E-1,-5.7143396E-1,-6.344922E-1,-1.5912831E-1,-2.0156921E-1,-7.213572E-1,-6.4957345E-1,-2.3518667E-1,-2.0752236E-1,-1.8654698E-1,-1.7624438E-1,-1.7210275E-1,-1.776793E-1,-5.573529E-1,-5.4152215E-1,-1.6022772E-1,-1.641204E-1,-1.7200656E-1,-1.6681154E-1,-1.523962E-1,-1.4903554E-1,-7.8693444E-1,-7.994951E-1,-7.996247E-1,-2.530197E-1,-1.9473532E-1,-1.8829297E-1,-8.8609093E-1,-8.62441E-1,-7.4210984E-1,-8.099717E-1,-2.2455648E-1,2.1569197E-1,-2.6446006E-1,-2.4179026E-1,-2.6835176E-1,-8.6971176E-1,-5.467892E-1,-6.483864E-1,-7.2598237E-1,-7.136189E-1,-7.070332E-1,-7.442388E-1,-2.2402424E-1,-7.849151E-2,-2.1217577E-1,-8.328452E-3,-7.2915107E-1,-7.209938E-1,-2.1826142E-1,-2.2405246E-1,-2.159564E-1,-2.277135E-1,-1.9863479E-1,-2.4396119E-1,-7.1045196E-1,-8.7752724E-1,-7.7791834E-1,-6.945959E-1,-3.274001E-2,-2.1086337E-1,-2.1438411E-1,-2.0721652E-1,-6.845472E-1,-6.6022414E-1,-1.942912E-1,-2.0016275E-1,-1.997994E-1,-2.2037737E-1,-2.3965739E-1,-2.7054563E-1,-1.9543034E-1,-1.7053276E-1,-8.7038964E-1,-7.859994E-1,-1.5168467E-1,-2.2870325E-1,-2.0316492E-1,-1.9390751E-1,-9.2207724E-1,-9.0195554E-1,9.099195E-2,-1.3482346E-1,-2.5700614E-1,-8.3670205E-1,-6.9660956E-1,-8.3944017E-1,-2.1404552E-1,1.3291588E-1,-7.630616E-1,-7.551768E-1,-2.9652593E-1,-2.9111817E-1,-1.9059208E-1,-2.2183958E-1,-7.6280904E-1,-7.447389E-1,-7.251394E-1,-7.5386846E-1,-2.2643511E-1,-6.535389E-2,-2.1826293E-1,-1.5672697E-1,-7.6932615E-1,-7.369748E-1,-2.2160229E-1,2.1127602E-2,-2.3016909E-1,-2.623547E-1,-2.769556E-1,-2.2742578E-1,-1.6575247E-1,-2.0122993E-1,-4.183217E-1,-5.535824E-1,-1.6138248E-1,1.5284948E-1,-7.400369E-1,-7.293278E-1,-2.1885838E-1,1.5538469E-1,-2.217465E-1,-2.3254764E-1,-2.6480508E-1,-2.598591E-1,-1.582901E-1,-1.9477062E-1,-9.068772E-1,-8.915522E-1,-2.7060786E-1,-8.7157005E-1,-2.6184618E-1,-1.3226941E-1,-7.4337846E-1,-7.2508514E-1,-2.1881492E-1,-2.1217941E-1,-7.5858E-1,-7.485629E-1,-2.26522E-1,-2.3700117E-1,-1.9673012E-1,-2.248859E-1,-7.377418E-1,-6.8109494E-1,-6.755571E-1,-8.086131E-1,-2.3025134E-1,-1.7230576E-1,-7.8764254E-1,-7.29372E-1,-2.3609821E-1,-2.651134E-1,-8.28654E-1,-8.654381E-1,-1.4636563E-1,-2.4958897E-1,-2.7331564E-1,-2.6523915E-1,-8.428339E-1,-8.256282E-1,-7.413874E-1,-8.277516E-1,-2.6173082E-1,-2.0053282E-1,-2.6036912E-1,-2.4667351E-1,-7.5835234E-1,-7.6888365E-1,-2.4509513E-1,-2.2968249E-1,-2.3261516E-1,-2.258449E-1,-6.071216E-1,-6.814108E-1,-5.989321E-2,-1.8810616E-1,-2.3391779E-1,-2.3050584E-1,-1.6575614E-1,-1.7404142E-1,-2.5747705E-1,-8.314921E-1,-7.58322E-1,-8.107147E-1,-8.418457E-1,-8.0988765E-1,-2.0541619E-1,-2.4874464E-1,-7.8093046E-1,-6.500019E-1,-2.7914026E-1,-1.5684557E-1,-2.3375939E-1,-2.4908568E-1,-2.0507935E-1,-2.0124649E-1,-2.4917261E-1,-2.5703543E-1,-2.2349606E-1,-2.4304044E-1,-2.1125232E-1,-1.6342913E-1,-1.5340893E-1,-2.754674E-1,-2.1887796E-1,-2.2767316E-1,-2.2142643E-1,-1.5294799E-1,-2.7346888E-1,-8.975172E-1,-2.4282522E-1,-2.5051293E-1,-2.4492443E-1,-2.6011792E-1,-7.4739575E-1,-7.02185E-1,-5.2293605E-1,-2.2103639E-1,-1.7954944E-1,2.0342386E-1,-2.5677434E-1,-2.700279E-1,-2.2969626E-1,-1.7017904E-1,-2.432888E-1,-2.5612757E-1,-7.490526E-1,-7.37816E-1,-2.2446789E-1,-2.4502969E-1,-2.2146858E-1,-5.3653907E-2,-2.1666735E-1,-2.591043E-1,-8.3773893E-1,-8.5827655E-1,-2.4673547E-1,-2.658472E-1,-2.5237483E-1,-2.3477904E-1,-8.8975066E-1,-2.52131E-1,-2.6604623E-1,-2.9134429E-1,-2.5230727E-1,-2.2534944E-1],"categories":[],"categories_nodes":[],"categories_segments":[],"categories_sizes":[],"default_left":[0,0,0,0,0,0,0,0,0,0,0,0,0,0,0,0,0,0,0,0,0,0,0,0,0,0,0,0,0,0,0,0,0,0,0,0,0,0,0,0,0,0,0,0,0,0,0,0,0,0,0,0,0,0,0,0,0,0,0,0,0,0,0,0,0,0,0,0,0,0,0,0,0,0,0,0,0,0,0,0,0,0,0,0,0,0,0,0,0,0,0,0,0,0,0,0,0,0,0,0,0,0,0,0,0,0,0,0,0,0,0,0,0,0,0,0,0,0,0,0,0,0,0,0,0,0,0,0,0,0,0,0,0,0,0,0,0,0,0,0,0,0,0,0,0,0,0,0,0,0,0,0,0,0,0,0,0,0,0,0,0,0,0,0,0,0,0,0,0,0,0,0,0,0,0,0,0,0,0,0,0,0,0,0,0,0,0,0,0,0,0,0,0,0,0,0,0,0,0,0,0,0,0,0,0,0,0,0,0,0,0,0,0,0,0,0,0,0,0,0,0,0,0,0,0,0,0,0,0,0,0,0,0,0,0,0,0,0,0,0,0,0,0,0,0,0,0,0,0,0,0,0,0,0,0,0,0,0,0,0,0,0,0,0,0,0,0,0,0,0,0,0,0,0,0,0,0,0,0,0,0,0,0,0,0,0,0,0,0,0,0,0,0,0,0,0,0,0,0,0,0,0,0,0,0,0,0,0,0,0,0,0,0,0,0,0,0,0,0,0,0,0,0,0,0,0,0,0,0,0,0,0,0,0,0,0,0,0,0,0,0,0,0,0,0,0,0,0,0,0,0,0,0,0,0,0,0,0,0,0,0,0,0,0,0,0,0,0,0,0,0,0,0,0,0,0,0],"id":4,"left_children":[1,5,3,9,7,13,11,19,15,17,21,23,29,27,25,47,31,45,33,39,37,35,41,43,61,57,59,103,53,69,51,63,49,55,157,289,67,81,107,273,89,225,75,311,313,95,-1,65,105,71,77,93,169,221,-1,-1,209,-1,257,165,213,151,101,143,123,91,119,159,319,219,345,99,73,-1,-1,263,185,149,79,-1,-1,83,85,87,97,183,155,-1,-1,193,167,141,255,135,247,-1,-1,-1,-1,-1,-1,187,111,-1,-1,131,115,109,243,129,223,355,113,-1,-1,117,147,-1,-1,121,139,-1,-1,125,127,-1,-1,-1,-1,-1,-1,201,133,-1,-1,137,241,-1,-1,-1,-1,-1,-1,309,145,-1,-1,-1,-1,-1,-1,279,153,199,211,-1,-1,371,283,161,163,-1,-1,-1,-1,-1,203,205,207,177,171,175,173,-1,-1,-1,-1,179,181,-1,-1,-1,-1,-1,-1,191,333,307,189,-1,-1,-1,-1,197,195,-1,-1,-1,-1,-1,-1,-1,-1,253,317,-1,-1,-1,-1,239,287,-1,-1,-1,215,217,375,-1,-1,297,267,-1,-1,-1,-1,233,227,231,229,-1,-1,-1,-1,237,235,-1,-1,-1,-1,-1,-1,-1,-1,245,331,-1,-1,251,249,-1,-1,-1,-1,-1,-1,-1,-1,339,259,-1,261,-1,-1,335,265,-1,-1,269,271,-1,-1,-1,-1,275,303,277,363,-1,-1,281,337,-1,-1,285,295,-1,-1,-1,-1,365,291,293,341,-1,-1,-1,-1,301,299,-1,-1,-1,-1,305,325,-1,-1,-1,-1,-1,-1,-1,327,353,315,343,329,-1,-1,323,321,-1,-1,-1,-1,-1,-1,-1,-1,-1,-1,-1,-1,-1,-1,-1,-1,-1,-1,-1,351,-1,-1,-1,-1,357,347,349,-1,-1,-1,-1,-1,-1,-1,-1,-1,359,361,-1,-1,-1,-1,-1,-1,369,367,-1,-1,-1,-1,373,-1,-1,-1,-1,-1],"loss_changes":[1.28345E4,3.2984688E3,8.967781E3,1.1783984E3,1.3450469E3,3.9954688E2,5.041875E2,1.5454688E2,2.0567188E2,1.5966406E2,1.4860547E2,6.8640625E1,4.8E1,4.8808594E1,5.8078125E1,1.0109375E1,4.1828125E1,1.2105469E1,2.9003906E1,1.4050781E1,1.9378906E1,2.1386719E1,1.2255859E1,1.22421875E1,4.359375E0,4.6171875E0,4.5859375E0,1.8027344E0,6.9179688E0,3.2265625E0,7.4921875E0,3.6015625E0,9.703125E0,5.3125E0,1.1611328E0,5.439453E-1,3.4267578E0,2.3339844E0,1.71875E0,5.8203125E-1,2.2890625E0,7.783203E-1,2.4726562E0,4.7070312E-1,4.53125E-1,2.0615234E0,0E0,3.4804688E0,1.7480469E0,3.0175781E0,2.4658203E0,2.15625E0,9.921875E-1,8.066406E-1,0E0,0E0,8.339844E-1,0E0,5.996094E-1,1.109375E0,8.300781E-1,1.2578125E0,1.8046875E0,1.2910156E0,1.5566406E0,2.2070312E0,1.5661621E0,1.1401367E0,4.2773438E-1,8.203125E-1,1.6210938E-1,1.9238281E0,2.6445312E0,0E0,0E0,5.986328E-1,9.5996094E-1,1.265625E0,5.302948E0,0E0,0E0,3.1386719E0,2.7480469E0,2.4038086E0,1.9648438E0,9.6069336E-1,1.2451172E0,0E0,0E0,9.2089844E-1,1.0429688E0,1.3007812E0,6.227112E-1,1.3839111E0,6.71875E-1,0E0,0E0,0E0,0E0,0E0,0E0,9.4921875E-1,1.7062988E0,0E0,0E0,1.5327148E0,1.6933594E0,2.0234375E0,7.390137E-1,1.5546875E0,7.807007E-1,1.1816406E-1,2.022583E0,0E0,0E0,2.0915222E0,1.2734375E0,0E0,0E0,3.3596544E0,1.3393555E0,0E0,0E0,2.0341797E0,1.9824219E0,0E0,0E0,0E0,0E0,0E0,0E0,8.909912E-1,1.6487122E0,0E0,0E0,1.4039917E0,7.698059E-1,0E0,0E0,0E0,0E0,0E0,0E0,4.7216797E-1,1.8789062E0,0E0,0E0,0E0,0E0,0E0,0E0,5.78125E-1,1.2617188E0,8.984375E-1,8.3167267E-1,0E0,0E0,3.3691406E-2,5.78125E-1,4.3573E0,1.690918E0,0E0,0E0,0E0,0E0,0E0,8.8671875E-1,8.800316E-1,8.623047E-1,1.109375E0,1.6884766E0,1.3305664E0,2.1357422E0,0E0,0E0,0E0,0E0,1.2539062E0,1.1972656E0,0E0,0E0,0E0,0E0,0E0,0E0,9.3652344E-1,3.1579208E-1,4.7265625E-1,1.0123062E0,0E0,0E0,0E0,0E0,1.8223877E0,2.1523438E0,0E0,0E0,0E0,0E0,0E0,0E0,0E0,0E0,6.5234375E-1,4.497528E-1,0E0,0E0,0E0,0E0,7.739258E-1,5.4785156E-1,0E0,0E0,0E0,1.2590332E0,2.2011566E0,2.6855469E-2,0E0,0E0,4.9414062E-1,5.9765625E-1,0E0,0E0,0E0,0E0,8.3203125E-1,9.199219E-1,9.0148926E-1,2.5656738E0,0E0,0E0,0E0,0E0,7.866211E-1,2.3814697E0,0E0,0E0,0E0,0E0,0E0,0E0,0E0,0E0,7.2674036E0,3.1976318E-1,0E0,0E0,1.6015625E0,3.4916992E0,0E0,0E0,0E0,0E0,0E0,0E0,0E0,0E0,2.890625E-1,8.7109375E-1,0E0,1.0974121E0,0E0,0E0,3.1225586E-1,1.0332031E0,0E0,0E0,3.1640625E0,1.2412109E0,0E0,0E0,0E0,0E0,9.054718E-1,4.7851562E-1,1.2484436E0,8.44574E-2,0E0,0E0,1.0429688E0,3.070526E-1,0E0,0E0,7.9681396E-1,5.332031E-1,0E0,0E0,0E0,0E0,6.4453125E-2,6.826172E-1,1.2121506E0,2.685547E-1,0E0,0E0,0E0,0E0,1.4707031E0,2.1289062E0,0E0,0E0,0E0,0E0,1.265583E0,4.21875E-1,0E0,0E0,0E0,0E0,0E0,0E0,0E0,3.4179688E-1,1.3581848E-1,8.5546875E-1,2.6696777E-1,3.3203125E-1,0E0,0E0,8.154297E-1,1.6768856E0,0E0,0E0,0E0,0E0,0E0,0E0,0E0,0E0,0E0,0E0,0E0,0E0,0E0,0E0,0E0,0E0,0E0,0E0,0E0,1.3916016E-1,0E0,0E0,0E0,0E0,9.5703125E-2,1.8237457E0,5.9482975E0,0E0,0E0,0E0,0E0,0E0,0E0,0E0,0E0,0E0,1.3339844E0,1.2722168E0,0E0,0E0,0E0,0E0,0E0,0E0,8.0029297E-1,1.699585E0,0E0,0E0,0E0,0E0,1.6699219E-1,0E0,0E0,0E0,0E0,0E0],"parents":[2147483647,0,0,2,2,1,1,4,4,3,3,6,6,5,5,8,8,9,9,7,7,10,10,11,11,14,14,13,13,12,12,16,16,18,18,21,21,20,20,19,19,22,22,23,23,17,17,15,15,32,32,30,30,28,28,33,33,25,25,26,26,24,24,31,31,47,47,36,36,29,29,49,49,72,72,42,42,50,50,78,78,37,37,81,81,82,82,83,83,40,40,65,65,51,51,45,45,84,84,71,71,62,62,27,27,48,48,38,38,107,107,102,102,112,112,106,106,115,115,66,66,119,119,64,64,123,123,124,124,109,109,105,105,132,132,93,93,135,135,120,120,91,91,63,63,144,144,116,116,77,77,61,61,152,152,86,86,34,34,67,67,159,159,160,160,59,59,90,90,52,52,170,170,172,172,171,171,169,169,177,177,178,178,85,85,76,76,101,101,188,188,185,185,89,89,194,194,193,193,153,153,131,131,166,166,167,167,168,168,56,56,154,154,60,60,214,214,215,215,69,69,53,53,110,110,41,41,226,226,228,228,227,227,225,225,234,234,233,233,209,209,136,136,108,108,243,243,94,94,248,248,247,247,203,203,92,92,58,58,258,258,260,260,75,75,264,264,220,220,267,267,268,268,39,39,273,273,275,275,151,151,279,279,158,158,283,283,210,210,35,35,290,290,291,291,284,284,219,219,298,298,297,297,274,274,303,303,187,187,143,143,43,43,44,44,314,314,204,204,68,68,320,320,319,319,304,304,312,312,316,316,244,244,186,186,263,263,280,280,257,257,292,292,315,315,70,70,346,346,347,347,340,340,313,313,111,111,345,345,357,357,358,358,276,276,289,289,366,366,365,365,157,157,371,371,216,216],"right_children":[2,6,4,10,8,14,12,20,16,18,22,24,30,28,26,48,32,46,34,40,38,36,42,44,62,58,60,104,54,70,52,64,50,56,158,290,68,82,108,274,90,226,76,312,314,96,-1,66,106,72,78,94,170,222,-1,-1,210,-1,258,166,214,152,102,144,124,92,120,160,320,220,346,100,74,-1,-1,264,186,150,80,-1,-1,84,86,88,98,184,156,-1,-1,194,168,142,256,136,248,-1,-1,-1,-1,-1,-1,188,112,-1,-1,132,116,110,244,130,224,356,114,-1,-1,118,148,-1,-1,122,140,-1,-1,126,128,-1,-1,-1,-1,-1,-1,202,134,-1,-1,138,242,-1,-1,-1,-1,-1,-1,310,146,-1,-1,-1,-1,-1,-1,280,154,200,212,-1,-1,372,284,162,164,-1,-1,-1,-1,-1,204,206,208,178,172,176,174,-1,-1,-1,-1,180,182,-1,-1,-1,-1,-1,-1,192,334,308,190,-1,-1,-1,-1,198,196,-1,-1,-1,-1,-1,-1,-1,-1,254,318,-1,-1,-1,-1,240,288,-1,-1,-1,216,218,376,-1,-1,298,268,-1,-1,-1,-1,234,228,232,230,-1,-1,-1,-1,238,236,-1,-1,-1,-1,-1,-1,-1,-1,246,332,-1,-1,252,250,-1,-1,-1,-1,-1,-1,-1,-1,340,260,-1,262,-1,-1,336,266,-1,-1,270,272,-1,-1,-1,-1,276,304,278,364,-1,-1,282,338,-1,-1,286,296,-1,-1,-1,-1,366,292,294,342,-1,-1,-1,-1,302,300,-1,-1,-1,-1,306,326,-1,-1,-1,-1,-1,-1,-1,328,354,316,344,330,-1,-1,324,322,-1,-1,-1,-1,-1,-1,-1,-1,-1,-1,-1,-1,-1,-1,-1,-1,-1,-1,-1,352,-1,-1,-1,-1,358,348,350,-1,-1,-1,-1,-1,-1,-1,-1,-1,360,362,-1,-1,-1,-1,-1,-1,370,368,-1,-1,-1,-1,374,-1,-1,-1,-1,-1],"split_conditions":[1E0,2.1E1,2E1,8E0,4E1,8E0,4.4E1,2.9E1,5.4E1,3E0,1.3E1,3.2E1,5.7E1,3E0,1.4E1,4.9E1,6.8E1,2E0,6E0,2.4E1,3.5E1,1E1,1.5E1,2.6E1,3.7E1,1E1,1.8E1,1E0,6E0,5.3E1,6.7E1,5.9E1,7.9E1,4E0,3.9406338E5,2.8646962E5,1.1E1,2.9681653E5,6.1645306E5,5.883268E4,2.7E1,1.4E1,1.8E1,1.01592805E5,5.883268E4,1E0,-2.9179507E-1,4.5694178E5,1.2783884E5,1.8531644E5,5.5371425E5,2.4630903E5,4.4134666E5,4E0,-2.8456947E-1,-2.8379425E-1,5E0,-2.775718E-1,1.3E1,1.4084683E5,5.292281E5,4.8914338E5,5.1589812E5,1.4084683E5,1.3867353E5,4.4357288E5,2.709395E5,1.0771232E5,5.8878706E5,4.8E1,5.7201006E5,6.226478E5,1.9044448E5,-1.4574598E-1,-1.5530121E-1,1.6551528E5,5.8878706E5,8.8E1,3.1127625E5,4.316775E-2,-1.4045566E-1,4.2972875E5,2.985328E5,6.984217E4,3.2E1,3.2E1,3.631652E5,-1.9758007E-1,-1.7999196E-1,1.2783884E5,5.883268E4,5.8475206E5,4.9446675E5,1.01592805E5,4.165062E5,-3.1160718E-1,-3.0276194E-1,-1.9010252E-1,-1.8487209E-1,-1.5851003E-1,-1.9378275E-1,6.318002E5,4.2E1,-3.1165272E-1,-3.0450258E-1,1.23465805E5,2.573469E5,6.036454E5,1.4302181E5,1.7230827E5,2.840785E5,4E1,4.3334166E5,-2.3990263E-1,-2.0148699E-1,2.05151E5,3.5082278E5,-1.04376145E-1,-1.5780815E-1,4.5E1,5.190755E5,-2.0880546E-1,2.576297E-1,8.5188055E4,4.165062E5,-1.6417359E-1,-1.5391195E-1,-1.6114424E-1,-1.5684715E-1,-1.8325832E-1,-1.7882587E-1,2.0027256E5,4.382857E5,-1.5912831E-1,-2.0156921E-1,6E1,2.0038378E5,-2.3518667E-1,-2.0752236E-1,-1.8654698E-1,-1.7624438E-1,-1.7210275E-1,-1.776793E-1,1.30010734E5,2.5157967E5,-1.6022772E-1,-1.641204E-1,-1.7200656E-1,-1.6681154E-1,-1.523962E-1,-1.4903554E-1,4.8558656E5,4.7494666E5,4.3304712E5,3.3E1,-1.9473532E-1,-1.8829297E-1,4.3937562E5,4.0745834E5,6.036454E5,1.3433373E5,-2.2455648E-1,2.1569197E-1,-2.6446006E-1,-2.4179026E-1,-2.6835176E-1,5.7201006E5,2.644729E5,1.23465805E5,4.816782E5,5.646935E5,5.303019E5,4.4481628E5,-2.2402424E-1,-7.849151E-2,-2.1217577E-1,-8.328452E-3,4.6057434E5,6.226478E5,-2.1826142E-1,-2.2405246E-1,-2.159564E-1,-2.277135E-1,-1.9863479E-1,-2.4396119E-1,4.0305766E5,3.6766125E5,3.9364884E5,1.21243375E5,-3.274001E-2,-2.1086337E-1,-2.1438411E-1,-2.0721652E-1,5.0762275E5,1.9635142E5,-1.942912E-1,-2.0016275E-1,-1.997994E-1,-2.2037737E-1,-2.3965739E-1,-2.7054563E-1,-1.9543034E-1,-1.7053276E-1,1.5E1,3.9169812E5,-1.5168467E-1,-2.2870325E-1,-2.0316492E-1,-1.9390751E-1,6.226478E5,3.201689E5,9.099195E-2,-1.3482346E-1,-2.5700614E-1,5.297721E5,3.919485E5,6.318002E5,-2.1404552E-1,1.3291588E-1,4.6437566E5,5.024212E5,-2.9652593E-1,-2.9111817E-1,-1.9059208E-1,-2.2183958E-1,5.297721E5,4.0377994E5,4.0287584E5,5.8878706E5,-2.2643511E-1,-6.535389E-2,-2.1826293E-1,-1.5672697E-1,5.275818E5,4.058606E5,-2.2160229E-1,2.1127602E-2,-2.3016909E-1,-2.623547E-1,-2.769556E-1,-2.2742578E-1,-1.6575247E-1,-2.0122993E-1,1.4084683E5,1.5175803E5,-1.6138248E-1,1.5284948E-1,4.086795E5,5.513852E5,-2.1885838E-1,1.5538469E-1,-2.217465E-1,-2.3254764E-1,-2.6480508E-1,-2.598591E-1,-1.582901E-1,-1.9477062E-1,5.065476E5,3.201689E5,-2.7060786E-1,6.226478E5,-2.6184618E-1,-1.3226941E-1,1.30010734E5,5.286751E5,-2.1881492E-1,-2.1217941E-1,4.7344825E5,5.0394694E5,-2.26522E-1,-2.3700117E-1,-1.9673012E-1,-2.248859E-1,2.2E1,6.3499504E4,2.1E1,5.3116824E4,-2.3025134E-1,-1.7230576E-1,4.836817E5,4.3141966E5,-2.3609821E-1,-2.651134E-1,1.30010734E5,5.911334E5,-1.4636563E-1,-2.4958897E-1,-2.7331564E-1,-2.6523915E-1,5.361894E5,3.2241384E5,2.833528E5,3.4823797E5,-2.6173082E-1,-2.0053282E-1,-2.6036912E-1,-2.4667351E-1,3.5604188E5,4.7544916E5,-2.4509513E-1,-2.2968249E-1,-2.3261516E-1,-2.258449E-1,2.0027256E5,4.058606E5,-5.989321E-2,-1.8810616E-1,-2.3391779E-1,-2.3050584E-1,-1.6575614E-1,-1.7404142E-1,-2.5747705E-1,5.379567E5,3.074487E5,1.01592805E5,3.1127625E5,1.0363978E5,-2.0541619E-1,-2.4874464E-1,5.2344962E5,3.8201078E5,-2.7914026E-1,-1.5684557E-1,-2.3375939E-1,-2.4908568E-1,-2.0507935E-1,-2.0124649E-1,-2.4917261E-1,-2.5703543E-1,-2.2349606E-1,-2.4304044E-1,-2.1125232E-1,-1.6342913E-1,-1.5340893E-1,-2.754674E-1,-2.1887796E-1,-2.2767316E-1,-2.2142643E-1,-1.5294799E-1,-2.7346888E-1,1.2566001E5,-2.4282522E-1,-2.5051293E-1,-2.4492443E-1,-2.6011792E-1,5.374421E5,3.735005E5,3.723319E5,-2.2103639E-1,-1.7954944E-1,2.0342386E-1,-2.5677434E-1,-2.700279E-1,-2.2969626E-1,-1.7017904E-1,-2.432888E-1,-2.5612757E-1,5.3562056E5,4.044273E5,-2.2446789E-1,-2.4502969E-1,-2.2146858E-1,-5.3653907E-2,-2.1666735E-1,-2.591043E-1,5.323486E5,1.7888286E5,-2.4673547E-1,-2.658472E-1,-2.5237483E-1,-2.3477904E-1,4.253762E5,-2.52131E-1,-2.6604623E-1,-2.9134429E-1,-2.5230727E-1,-2.2534944E-1],"split_indices":[1,0,0,0,0,0,0,0,0,0,0,0,0,0,0,0,0,0,0,0,0,0,0,0,0,0,0,0,0,0,0,0,0,0,3,2,0,2,3,2,0,0,0,2,2,0,0,2,2,2,2,3,2,0,0,0,0,0,0,2,3,3,2,2,2,2,3,2,2,0,2,3,2,0,0,2,2,0,3,0,0,3,2,2,0,0,3,0,0,2,2,3,3,2,2,0,0,0,0,0,0,3,0,0,0,2,3,3,2,2,2,0,3,0,0,2,3,0,0,0,2,0,0,2,2,0,0,0,0,0,0,3,3,0,0,0,2,0,0,0,0,0,0,2,2,0,0,0,0,0,0,3,2,2,0,0,0,2,3,3,2,0,0,0,0,0,2,3,2,3,2,3,3,0,0,0,0,3,3,0,0,0,0,0,0,2,3,2,2,0,0,0,0,3,2,0,0,0,0,0,0,0,0,0,3,0,0,0,0,3,2,0,0,0,3,2,3,0,0,3,3,0,0,0,0,3,3,3,2,0,0,0,0,3,2,0,0,0,0,0,0,0,0,2,2,0,0,2,3,0,0,0,0,0,0,0,0,3,2,0,3,0,0,2,3,0,0,3,3,0,0,0,0,0,2,0,2,0,0,3,2,0,0,2,3,0,0,0,0,3,3,3,2,0,0,0,0,3,3,0,0,0,0,3,2,0,0,0,0,0,0,0,2,3,2,3,2,0,0,2,3,0,0,0,0,0,0,0,0,0,0,0,0,0,0,0,0,0,0,0,2,0,0,0,0,3,3,3,0,0,0,0,0,0,0,0,0,3,2,0,0,0,0,0,0,3,2,0,0,0,0,2,0,0,0,0,0],"split_type":[0,0,0,0,0,0,0,0,0,0,0,0,0,0,0,0,0,0,0,0,0,0,0,0,0,0,0,0,0,0,0,0,0,0,0,0,0,0,0,0,0,0,0,0,0,0,0,0,0,0,0,0,0,0,0,0,0,0,0,0,0,0,0,0,0,0,0,0,0,0,0,0,0,0,0,0,0,0,0,0,0,0,0,0,0,0,0,0,0,0,0,0,0,0,0,0,0,0,0,0,0,0,0,0,0,0,0,0,0,0,0,0,0,0,0,0,0,0,0,0,0,0,0,0,0,0,0,0,0,0,0,0,0,0,0,0,0,0,0,0,0,0,0,0,0,0,0,0,0,0,0,0,0,0,0,0,0,0,0,0,0,0,0,0,0,0,0,0,0,0,0,0,0,0,0,0,0,0,0,0,0,0,0,0,0,0,0,0,0,0,0,0,0,0,0,0,0,0,0,0,0,0,0,0,0,0,0,0,0,0,0,0,0,0,0,0,0,0,0,0,0,0,0,0,0,0,0,0,0,0,0,0,0,0,0,0,0,0,0,0,0,0,0,0,0,0,0,0,0,0,0,0,0,0,0,0,0,0,0,0,0,0,0,0,0,0,0,0,0,0,0,0,0,0,0,0,0,0,0,0,0,0,0,0,0,0,0,0,0,0,0,0,0,0,0,0,0,0,0,0,0,0,0,0,0,0,0,0,0,0,0,0,0,0,0,0,0,0,0,0,0,0,0,0,0,0,0,0,0,0,0,0,0,0,0,0,0,0,0,0,0,0,0,0,0,0,0,0,0,0,0,0,0,0,0,0,0,0,0,0,0,0,0,0,0,0,0,0,0,0,0,0,0,0,0,0,0],"sum_hessian":[1.5734425E6,7.236456E5,8.497969E5,1.6526567E5,6.845312E5,1.7191608E5,5.5172956E5,2.175119E5,4.6701928E5,6.3882082E4,1.01383586E5,2.2089267E5,3.3083688E5,6.5118637E4,1.06797445E5,1.6285316E5,3.0416612E5,2.2097135E4,4.178495E4,9.278003E4,1.24731875E5,4.3152684E4,5.8230902E4,1.0733328E5,1.1355938E5,5.0225344E4,5.6572098E4,2.3017594E4,4.2101043E4,1.3226416E5,1.9857272E5,1.495415E5,1.5462464E5,2.4308502E4,1.7476447E4,1.7212217E4,2.5940469E4,6.7803336E4,5.6928535E4,3.8513133E4,5.4266895E4,1.6501967E4,4.1728938E4,4.719892E4,6.013436E4,1.4314223E4,7.782912E3,1.00230625E5,6.2622523E4,9.333548E4,6.1289168E4,8.433219E4,1.1424053E5,2.4704791E4,1.739625E4,7.856454E3,1.6452047E4,1.7056535E4,3.316881E4,3.111781E4,2.5454287E4,4.8941176E4,6.4618207E4,5.9897367E4,8.9644125E4,9.3958516E4,6.272109E3,8.784692E3,1.7155775E4,9.106969E4,4.1194473E4,2.8852045E4,6.448343E4,3.0075024E3,6.1475926E4,2.426819E4,1.7460746E4,5.971745E4,1.57172E3,1.3866371E1,1.5578536E3,4.248367E4,2.5319664E4,1.1501507E4,3.0982166E4,2.6228732E2,2.5057377E4,8.706746E2,1.0630832E4,3.188687E4,2.2380025E4,9.246252E4,1.4959902E3,1.6022161E3,8.272998E4,6.9784116E3,7.335811E3,1.5458647E4,1.5523519E4,2.8692725E4,1.5932191E2,6.199928E4,2.6189263E3,7.3768804E3,1.5640714E4,5.783547E3,5.6838977E4,5.6337887E4,5.9064905E2,5.5738887E4,5.989979E2,1.8896115E3,7.2931476E2,4.97962E2,2.3135275E2,4.5794916E2,5.6381027E4,9.089033E1,3.670588E2,3.5781894E0,6.268531E3,1.9371349E0,1.6410545E0,1.1106535E4,7.853759E4,2.5604482E3,8.546087E3,6.5238707E4,1.3298882E4,1.08879795E4,4.4850906E4,5.26943E3,5.14117E2,1.3994836E2,3.7416864E2,1.0488527E3,5.5336346E2,3.2867465E2,7.20178E2,2.2421477E3,4.026383E3,8.7470164E4,4.992365E3,7.19803E3,5.269934E4,2.2565592E4,3.0133746E4,5.904234E3,5.0476793E4,4.283119E4,1.6886256E4,2.827266E4,2.0668516E4,2.0663152E4,5.3644195E0,4.301792E3,2.0755586E4,4.675609E3,1.2800838E4,4.0667563E2,8.378017E3,4.0538437E2,1.2912729E0,4.3232925E2,7.9456875E3,3.4187773E3,2.7699033E4,1.4158684E2,2.2238438E4,1.0325592E5,1.0984611E4,9.060094E3,1.9245173E3,1.9140208E3,1.0496682E1,9.057128E3,2.9657254E0,6.305747E4,4.0198453E4,5.782693E4,5.230538E3,3.9049332E4,1.1491185E3,1.2974776E2,1.3253958E2,1.7409047E4,5.1700405E1,6.1775688E4,2.2359357E2,3.3166187E0,2.2027695E2,1.4347511E4,3.0615354E3,2.489311E3,2.9397559E4,1.0525169E4,1.8872389E4,1.8265826E3,6.627284E2,2.0518021E4,1.451309E2,1.821232E2,5.0873066E3,2.7467205E4,2.318285E2,1.2168846E2,1.9898378E1,1.4396592E3,2.079878E4,8.109102E3,8.342945E3,1.2575939E0,4.1068254E0,2.0649055E4,4.8052314E3,9.701469E1,4.708217E3,9.5967606E1,1.0470823E0,3.9269156E4,5.1800527E4,8.0242183E3,1.6680574E4,4.5046222E2,1.4853574E2,8.308093E3,8.193875E3,2.629419E3,5.5644556E3,5.554563E3,9.892559E0,2.5960476E3,3.3371502E1,6.611471E3,1.6966211E3,1.6931422E3,3.4788678E0,6.490446E3,1.21025734E2,8.050076E3,5.9025772E1,1.0401918E2,4.4934427E2,6.2011036E1,5.28638E2,5.5301464E1,6.709571E0,7.025646E4,1.2473511E4,1.2471925E4,1.58603E0,6.8557016E4,1.6994502E3,6.9317495E3,2.0535455E4,1.4329247E3,6.3065514E1,2.5251336E4,7.9174736E3,5.165673E3,2.751801E3,2.7428103E3,8.9907E0,4.0430276E3,2.0225162E4,1.6262944E4,3.962218E3,3.4126746E4,1.7673783E4,3.0723215E4,3.4035286E3,2.0599014E2,1.7467793E4,3.284071E2,3.8184727E4,1.8053334E2,1.4787376E2,9.114324E1,8.93901E1,2.791655E4,3.561102E2,2.7738496E4,1.7805473E2,1.0655833E3,1.1735255E4,1.1675975E1,1.0539073E3,5.4907793E3,2.8521665E3,9.964291E3,7.2479253E3,1.8680952E2,7.0611157E3,6.288087E1,1.2392865E2,1.1085098E4,6.501567E2,2.178178E4,1.7487377E4,1.0990568E3,1.638832E4,5.309146E3,1.6472633E4,1.7052147E2,3.8014203E4,8.45331E0,1.6206816E2,5.1889727E4,9.885959E3,5.959361E3,1.2386688E3,1.6860997E3,4.551282E4,4.0599142E2,5.9728367E4,1.5194802E3,5.8208887E4,7.430068E1,1.5752783E2,1.7096127E4,5.9648094E1,1.663922E1,4.3008877E1,1.6532568E4,5.6355817E2,3.1454215E4,6.55999E3,4.395353E4,1.5592894E3,2.3221262E2,5.7976676E4,2.4882298E1,5.037557E2,6.52834E0,4.5172062E1,2.1673713E3,1.875656E3,3.402406E2,1.5869584E1,1.6763188E4,8.488147E3,2.0410269E3,5.020089E3,7.7310266E2,7.4637756E2,4.0839324E4,3.551493E2,6.0073185E1,2.950761E2,5.698936E1,3.0838225E0,5.1431494E2,7.9738325E3,3.8809048E2,1.7900951E1,1.2028982E3,6.867132E2,3.4751836E4,6.0874897E3,3.4344785E4,4.0704956E2,6.082679E3,4.8104E0,6.3060986E1,8.4812775E1,7.5339087E3,2.4303826E3,1.0770033E3,1.3533793E3,7.069598E3,4.643105E2,4.3115063E3,3.6410257E2,4.173185E3,1.3832137E2,4.616847E3,9.136953E1],"tree_param":{"num_deleted":"0","num_feature":"4","num_nodes":"377","size_leaf_vector":"1"}},{"base_weights":[-6.2167615E-1,-8.233986E-1,-5.717821E-1,-6.899825E-1,-4.8039556E-1,-9.247895E-1,-7.6038504E-1,-5.480611E-1,-4.519874E-1,-8.380896E-1,-6.880122E-1,-7.3750764E-1,-6.6346246E-1,-9.944697E-1,-8.8815534E-1,-4.819441E-1,-4.3509713E-1,-7.394064E-1,-6.5075165E-1,-5.7980716E-1,-5.225414E-1,-9.291921E-1,-8.4755075E-1,-6.827878E-1,-6.497823E-1,-7.6342225E-1,-7.220836E-1,-8.644033E-1,-8.1078315E-1,-8.893417E-1,-8.2208395E-1,-4.5002562E-1,-4.276003E-1,-7.748201E-1,-7.161988E-1,-1.0126438E0,-9.609602E-1,-5.989057E-1,-5.663288E-1,-6.8069506E-1,-6.3900316E-1,-5.3652996E-1,-5.1332676E-1,-4.8833865E-1,-4.7062233E-1,-4.316488E-1,-4.129279E-1,-6.932558E-1,-6.745094E-1,-9.52291E-1,-9.1472685E-1,-6.5499294E-1,-6.389975E-1,-7.280326E-1,-7.082654E-1,-8.7749463E-1,-8.5074854E-1,-8.468988E-1,-8.102694E-1,-4.327589E-1,-3.9638025E-1,-7.712483E-1,-7.5141865E-1,-2.949373E-1,-2.814604E-1,1.293053E-1,-1.1928377E-1,-3.0851957E-1,-2.992586E-1,-7.368181E-1,-7.0567906E-1,-6.609462E-1,-6.3542426E-1,-4.7000602E-1,-5.672903E-1,-6.4783275E-1,-6.2676126E-1,-4.9614197E-1,-4.8358607E-1,-5.7808596E-1,-5.6054157E-1,-4.807801E-1,-4.649413E-1,-4.7235638E-1,-4.5306286E-1,-1.6833799E-1,-1.1243229E-1,-8.245621E-1,-8.041088E-1,-4.793094E-1,-4.945874E-1,-1.4428215E-1,-1.3153096E-1,-2.718147E-1,-8.7312204E-1,-1.52582E-1,-1.4487511E-1,-1.0697599E-1,-1.4202039E-1,-5.2187514E-1,-5.4128325E-1,-5.28204E-1,-5.4946095E-1,-1.8872465E-1,-1.64073E-1,-1.5349716E-1,-1.6320089E-1,-4.314578E-1,-4.0948105E-1,-6.5973717E-1,-6.501159E-1,-1.1329643E-1,-1.3164237E-1,-6.9853514E-1,-6.8379444E-1,-1.3070837E-1,-1.2807436E-1,-1.3285688E-1,-1.409246E-1,-4.8299655E-1,-4.2791477E-1,-7.3639005E-1,-7.237412E-1,-4.9678937E-1,-4.028696E-1,-1.2411867E-1,1.9509864E-1,-1.3837701E-1,-1.05506174E-1,-5.7783616E-1,-6.020601E-1,-5.839864E-1,-3.4176576E-1,-1.8142864E-1,-1.6309923E-1,-8.919176E-2,-2.707084E-1,-8.747569E-1,-6.517457E-1,-1.72652E-1,-1.8686436E-1,-5.8303124E-1,-5.1854795E-1,-1.3945156E-1,-1.5763761E-1,-1.4818653E-1,-1.5450168E-1,-5.21393E-1,-5.0937456E-1,-5.4723746E-1,-5.168824E-1,-1.0822339E-1,-1.5568006E-1,-1.4121005E-1,-1.702234E-1,-6.920244E-1,-6.4926994E-1,-1.7748263E-1,-1.9525144E-1,-5.1541096E-1,-4.4972017E-1,-6.345232E-1,-6.8100023E-1,-1.9100852E-1,-1.8320064E-1,-2.1366166E-1,-1.806614E-1,-5.10044E-1,-4.4475788E-1,-9.5173925E-2,-1.5115033E-1,-1.527321E-1,-1.6851714E-1,-5.955772E-1,-6.3076717E-1,-1.9174895E-1,-1.6662194E-1,-1.9602533E-1,-1.865648E-1,-4.5596653E-1,-4.467977E-1,-1.3426735E-1,-1.4187077E-1,-1.3078776E-1,-1.3526046E-1,-1.4121807E-1,-1.2260397E-1,-4.739216E-1,-6.12514E-1,-1.4636895E-1,6.7289494E-2,-6.0573626E-1,-5.861375E-1,-1.7605636E-1,1.7324582E-1,-1.809141E-1,-1.950922E-1,-1.4448747E-1,-1.6300459E-1,-2.7882937E-1,-2.722691E-1,-8.2935846E-1,-8.031134E-1,-2.2136086E-1,-1.5167685E-1,-7.8944397E-1,-7.685589E-1,-7.9097337E-1,-5.5123794E-1,-4.07423E-2,-1.9612016E-1,-7.8675896E-1,-7.6385975E-1,-6.5241903E-1,-6.306623E-1,-2.273247E-1,-1.8795724E-1,-1.9196571E-1,-1.9813533E-1,-8.490932E-1,-8.0250186E-1,-6.6031605E-1,-6.1389023E-1,-1.9833027E-1,-1.6672647E-1,-2.1136512E-1,-1.743275E-1,-7.06749E-1,-7.437471E-1,-7.1979386E-1,-8.2366216E-1,-1.0469381E-1,-2.573738E-1,-7.6701444E-1,-8.022708E-1,-6.902104E-1,-7.1284187E-1,-2.1629214E-1,-2.017121E-1,-6.2853676E-1,-7.387841E-1,-6.825217E-1,-6.215834E-1,-3.4445894E-1,-6.6215307E-1,-6.799286E-1,-7.486478E-1,-2.168783E-1,-2.700741E-1,7.793739E-2,-1.1207312E-1,-2.1607645E-1,-1.7960319E-1,-1.998492E-1,-2.0631368E-1,-2.3271273E-1,-2.2847228E-1,-6.8143517E-1,-7.6619416E-1,-2.2650455E-1,-1.6568515E-1,-2.3223332E-1,-2.0801432E-1,-6.925032E-1,-7.098998E-1,-2.1351601E-1,-2.0094611E-1,-2.1903147E-1,-2.1204099E-1,-2.2191392E-1,-1.6352771E-1,-2.2473091E-1,-2.3942423E-1,-6.619047E-1,-6.7593986E-1,-6.622389E-1,-1.1968462E-1,-6.9363487E-1,-6.7443687E-1,-2.0376226E-1,-1.9997466E-1,-2.0341642E-1,-2.1620284E-1,-1.9605951E-1,-2.0603207E-1,-7.0574975E-1,-6.934733E-1,-2.0762078E-1,-2.2486141E-1,-2.2430184E-1,-2.1091403E-1,-6.7903864E-1,-7.372882E-1,-2.0673607E-1,-1.54493805E-2,-7.0207155E-1,-6.8034697E-1,-1.8428902E-1,-2.056248E-1,-2.1101424E-1,-1.05715714E-1,-6.6731316E-1,-6.378074E-1,-1.6556834E-1,-1.9714788E-1,-1.993619E-1,-2.3222733E-1,-2.1191652E-1,-2.1989542E-1,-2.5524792E-1,-7.159405E-2,-2.33831E-1,-2.2580595E-1,-7.195747E-1,-7.296569E-1,-2.2301315E-1,-2.1526618E-1,-2.2152707E-1,-2.1499886E-1,-1.6416182E-1,3.4340404E-2,-2.4422993E-1,-2.375314E-1,-7.818127E-1,-8.255037E-1,-4.8948133E-1,-3.8143617E-1,-1.0147813E-1,-1.863415E-1,-1.3970877E-1,-1.7529868E-1,-8.486277E-1,-7.425083E-1,-2.6668787E-1,-8.717243E-1,-2.754819E-1,-2.609431E-1,-2.2620825E-1,-2.5516844E-1,-2.210544E-1,-2.4693254E-1,-1.5248314E-1,-2.4136811E-1,-8.030722E-1,-7.27554E-1,-2.3144092E-1,-2.4135524E-1,-2.493471E-1,-1.7749764E-1,-7.2816676E-1,-7.531786E-1,-7.849307E-1,-7.512377E-1,-2.2607876E-1,-2.1642649E-1,-2.316771E-1,-2.6301757E-1,-1.8926515E-1,-1.650599E-1,-1.9863804E-1,-1.957112E-1,-2.3525853E-1,-1.6298452E-1,-7.536902E-1,-8.255266E-1,-7.992216E-1,-5.494671E-1,-2.2262008E-1,-2.8438368E-1,-1.2499199E-1,-2.0155078E-1,-8.646183E-1,-8.234247E-1,-2.3159948E-1,-2.6497096E-1,-6.2908396E-2,-2.242835E-1,-2.5002518E-1,-2.3302956E-1,-2.20551E-1,-2.2527279E-1,-8.541127E-1,-8.3780354E-1,-8.3799607E-1,-3.1200139E-2,-8.617902E-1,-8.4428346E-1,-2.565363E-1,-2.4647404E-1,-2.553471E-1,-2.6281995E-1,-2.0702134E-1,-2.4373722E-1,-2.2099711E-1,-2.5188607E-1,-7.4885154E-1,-7.1214277E-1,3.520877E-2,-2.1431059E-1,-2.2072771E-1,-2.7791888E-1,-2.8832316E-1,-2.8308666E-1,-2.6204622E-1,-2.5181773E-1,-2.1042217E-1,-2.3491026E-1,-2.472181E-1,-2.2155266E-1],"categories":[],"categories_nodes":[],"categories_segments":[],"categories_sizes":[],"default_left":[0,0,0,0,0,0,0,0,0,0,0,0,0,0,0,0,0,0,0,0,0,0,0,0,0,0,0,0,0,0,0,0,0,0,0,0,0,0,0,0,0,0,0,0,0,0,0,0,0,0,0,0,0,0,0,0,0,0,0,0,0,0,0,0,0,0,0,0,0,0,0,0,0,0,0,0,0,0,0,0,0,0,0,0,0,0,0,0,0,0,0,0,0,0,0,0,0,0,0,0,0,0,0,0,0,0,0,0,0,0,0,0,0,0,0,0,0,0,0,0,0,0,0,0,0,0,0,0,0,0,0,0,0,0,0,0,0,0,0,0,0,0,0,0,0,0,0,0,0,0,0,0,0,0,0,0,0,0,0,0,0,0,0,0,0,0,0,0,0,0,0,0,0,0,0,0,0,0,0,0,0,0,0,0,0,0,0,0,0,0,0,0,0,0,0,0,0,0,0,0,0,0,0,0,0,0,0,0,0,0,0,0,0,0,0,0,0,0,0,0,0,0,0,0,0,0,0,0,0,0,0,0,0,0,0,0,0,0,0,0,0,0,0,0,0,0,0,0,0,0,0,0,0,0,0,0,0,0,0,0,0,0,0,0,0,0,0,0,0,0,0,0,0,0,0,0,0,0,0,0,0,0,0,0,0,0,0,0,0,0,0,0,0,0,0,0,0,0,0,0,0,0,0,0,0,0,0,0,0,0,0,0,0,0,0,0,0,0,0,0,0,0,0,0,0,0,0,0,0,0,0,0,0,0,0,0,0,0,0,0,0,0,0,0,0,0,0,0,0,0,0,0,0,0,0,0,0,0,0,0,0,0,0,0,0,0,0,0,0,0,0,0,0,0,0,0,0,0,0,0,0,0,0,0,0,0,0,0,0,0,0,0,0,0,0,0,0,0,0,0,0,0,0,0,0,0,0,0,0],"id":5,"left_children":[1,5,3,11,7,13,9,19,15,27,17,25,23,35,21,43,31,33,39,37,41,49,29,47,51,61,53,55,87,93,57,159,45,211,69,67,63,129,73,241,75,99,147,77,81,59,107,113,273,401,199,109,71,121,227,333,381,331,201,115,65,205,349,-1,-1,-1,-1,-1,-1,239,235,301,161,325,79,213,173,123,89,139,85,119,83,97,117,-1,-1,363,219,91,95,-1,-1,-1,137,-1,-1,-1,-1,141,101,105,103,-1,-1,-1,-1,111,185,221,155,-1,-1,285,295,-1,-1,-1,-1,197,127,291,313,145,125,-1,-1,-1,-1,131,191,133,135,-1,-1,-1,-1,335,361,-1,-1,357,143,-1,-1,-1,-1,149,167,153,151,-1,-1,-1,-1,225,157,-1,-1,187,179,163,165,-1,-1,-1,-1,171,169,-1,-1,-1,-1,175,177,-1,-1,-1,-1,181,183,-1,-1,-1,-1,-1,-1,189,203,-1,-1,195,193,-1,-1,-1,-1,-1,-1,-1,-1,377,321,-1,-1,207,233,271,209,-1,-1,323,257,217,215,-1,-1,-1,-1,309,343,359,223,-1,-1,-1,-1,263,229,261,231,-1,-1,255,341,237,307,-1,-1,269,339,245,243,249,251,253,247,-1,-1,-1,-1,-1,-1,-1,-1,-1,-1,259,311,-1,-1,-1,-1,265,267,-1,-1,-1,-1,-1,-1,-1,-1,275,277,283,319,281,279,-1,-1,-1,-1,-1,-1,289,287,-1,-1,-1,-1,293,379,-1,-1,299,297,-1,-1,-1,-1,305,303,-1,-1,-1,-1,-1,-1,-1,-1,-1,-1,317,315,-1,-1,-1,-1,-1,-1,-1,-1,405,347,329,327,-1,-1,-1,-1,337,375,-1,403,-1,-1,-1,-1,-1,-1,-1,-1,345,391,-1,-1,-1,-1,395,351,355,353,-1,-1,-1,-1,-1,-1,-1,-1,-1,-1,365,371,367,369,-1,-1,-1,-1,373,407,-1,-1,-1,-1,-1,-1,-1,-1,385,383,393,-1,389,387,-1,-1,-1,-1,-1,-1,-1,-1,399,397,-1,-1,-1,-1,-1,-1,-1,-1,-1,-1,-1,-1],"loss_changes":[1.3061156E4,1.6434219E3,1.1238281E4,5.712969E2,1.1276719E3,2.5088281E2,8.9196094E2,1.4025781E2,2.0889844E2,5.4289062E1,1.5689062E2,6.4390625E1,7.653906E1,1.971875E1,1.069375E2,1.05546875E1,2.9386719E1,2.7824219E1,1.6326172E1,1.95625E1,1.2125E1,9.871094E0,3.3867188E1,9.988281E0,9.1640625E0,5.1132812E0,7.8632812E0,6.216797E0,2.7929688E0,2.5410156E0,5.2402344E0,1.53125E0,1.0271484E1,1.1865234E0,4.0078125E0,4.2148438E0,5.1132812E0,1.7773438E0,3.9316406E0,1.0239258E0,3.2939453E0,2.3769531E0,1.5839844E0,3.2890625E0,2.881836E0,5.2246094E0,2.255371E0,2.1816406E0,7.675781E-1,3.4179688E-2,1.2421875E0,2.2304688E0,3.9414062E0,2.0195312E0,1.1230469E0,5.4003906E-1,1.1621094E-1,5.419922E-1,1.2080078E0,2.1054688E0,4.4733887E0,1.1875E0,4.3164062E-1,0E0,0E0,0E0,0E0,0E0,0E0,1.0322266E0,1.0419922E0,7.1728516E-1,1.53125E0,5.962982E-1,2.9453125E0,1.1533203E0,1.4204102E0,1.9736328E0,2.5478516E0,1.6328125E0,2.7949219E0,2.0517578E0,2.8276367E0,2.4003906E0,2.0566406E0,0E0,0E0,2.1289062E-1,1.1503906E0,2.6328125E0,2.4604492E0,0E0,0E0,0E0,1.6977539E0,0E0,0E0,0E0,0E0,1.605957E0,2.790039E0,2.625E0,3.2504883E0,0E0,0E0,0E0,0E0,2.1883545E0,1.3833008E0,1.1386719E0,1.5625E0,0E0,0E0,7.578125E-1,7.265625E-1,0E0,0E0,0E0,0E0,1.269043E0,1.8307648E0,7.402344E-1,6.3671875E-1,1.5917969E0,3.1669502E0,0E0,0E0,0E0,0E0,5.880493E0,1.2705078E0,3.0891113E0,2.442008E0,0E0,0E0,0E0,0E0,5.4003906E-1,2.9030418E-1,0E0,0E0,4.0048218E-1,3.0603027E0,0E0,0E0,0E0,0E0,1.9355469E0,1.4589844E0,4.0740967E0,5.008789E0,0E0,0E0,0E0,0E0,1.1295166E0,4.6445312E0,0E0,0E0,1.3367462E0,1.4003906E0,2.0410156E0,1.8174744E0,0E0,0E0,0E0,0E0,1.5810547E0,2.9098282E0,0E0,0E0,0E0,0E0,2.5420532E0,2.1542969E0,0E0,0E0,0E0,0E0,3.7734375E0,2.4492188E0,0E0,0E0,0E0,0E0,0E0,0E0,2.9135056E0,1.20158E0,0E0,0E0,2.3095703E0,4.7126465E0,0E0,0E0,0E0,0E0,0E0,0E0,0E0,0E0,1.4453125E-1,6.0253906E-1,0E0,0E0,1.2700195E0,1.0488281E0,7.858887E-1,1.3235912E0,0E0,0E0,6.0131836E-1,8.5498047E-1,1.1518555E0,1.743042E0,0E0,0E0,0E0,0E0,7.0391846E-1,4.6289062E-1,3.9453125E-1,1.6630554E0,0E0,0E0,0E0,0E0,8.3203125E-1,1.7786865E0,8.421936E-1,4.2330627E0,0E0,0E0,8.5546875E-1,5.1904297E-1,1.9372559E0,7.084961E-1,0E0,0E0,8.218422E-1,5.197754E-1,1.7202148E0,4.4176636E0,1.0621614E0,8.9416504E-1,8.833008E-1,1.2232971E0,0E0,0E0,0E0,0E0,0E0,0E0,0E0,0E0,0E0,0E0,1.5417252E0,6.567383E-1,0E0,0E0,0E0,0E0,1.8664551E0,9.9121094E-1,0E0,0E0,0E0,0E0,0E0,0E0,0E0,0E0,1.1750488E0,1.140625E0,1.0285645E0,6.114785E-1,1.4921875E0,1.6367188E0,0E0,0E0,0E0,0E0,0E0,0E0,1.0629883E0,1.0644531E0,0E0,0E0,0E0,0E0,2.3945312E0,1.3183594E-1,0E0,0E0,1.126831E0,4.975586E0,0E0,0E0,0E0,0E0,1.2810059E0,2.45813E0,0E0,0E0,0E0,0E0,0E0,0E0,0E0,0E0,0E0,0E0,9.9121094E-1,2.6865234E0,0E0,0E0,0E0,0E0,0E0,0E0,0E0,0E0,1.8798828E-2,4.580078E-1,5.594177E-1,6.8359566E-1,0E0,0E0,0E0,0E0,5.263672E-1,1.527977E-1,0E0,2.34375E-2,0E0,0E0,0E0,0E0,0E0,0E0,0E0,0E0,4.9023438E-1,6.1950684E-2,0E0,0E0,0E0,0E0,3.540039E-2,7.8125E-1,7.8759766E-1,9.316406E-1,0E0,0E0,0E0,0E0,0E0,0E0,0E0,0E0,0E0,0E0,1.1935196E0,2.7734375E-1,4.9827576E-1,2.9237938E-1,0E0,0E0,0E0,0E0,3.4368896E-1,9.277344E-3,0E0,0E0,0E0,0E0,0E0,0E0,0E0,0E0,4.1308594E-1,4.7729492E-1,3.8330078E-2,0E0,5.3515625E-1,9.404297E-1,0E0,0E0,0E0,0E0,0E0,0E0,0E0,0E0,1.0143738E0,1.9066467E0,0E0,0E0,0E0,0E0,0E0,0E0,0E0,0E0,0E0,0E0,0E0,0E0],"parents":[2147483647,0,0,2,2,1,1,4,4,6,6,3,3,5,5,8,8,10,10,7,7,14,14,12,12,11,11,9,9,22,22,16,16,17,17,13,13,19,19,18,18,20,20,15,15,32,32,23,23,21,21,24,24,26,26,27,27,30,30,45,45,25,25,36,36,60,60,35,35,34,34,52,52,38,38,40,40,43,43,74,74,44,44,82,82,80,80,28,28,78,78,89,89,29,29,90,90,83,83,41,41,100,100,102,102,101,101,46,46,51,51,107,107,47,47,59,59,84,84,81,81,53,53,77,77,124,124,120,120,37,37,129,129,131,131,132,132,94,94,79,79,99,99,142,142,123,123,42,42,147,147,150,150,149,149,110,110,156,156,31,31,72,72,161,161,162,162,148,148,168,168,167,167,76,76,173,173,174,174,160,160,179,179,180,180,108,108,159,159,187,187,130,130,192,192,191,191,119,119,50,50,58,58,188,188,61,61,205,205,208,208,33,33,75,75,214,214,213,213,88,88,109,109,222,222,155,155,54,54,228,228,230,230,206,206,70,70,235,235,69,69,39,39,242,242,241,241,246,246,243,243,244,244,245,245,233,233,212,212,257,257,229,229,227,227,263,263,264,264,239,239,207,207,48,48,273,273,274,274,278,278,277,277,275,275,113,113,286,286,285,285,121,121,291,291,114,114,296,296,295,295,71,71,302,302,301,301,236,236,219,219,258,258,122,122,314,314,313,313,276,276,202,202,211,211,73,73,326,326,325,325,57,57,55,55,137,137,331,331,240,240,234,234,220,220,343,343,324,324,62,62,350,350,352,352,351,351,141,141,221,221,138,138,87,87,363,363,365,365,366,366,364,364,371,371,332,332,201,201,292,292,56,56,382,382,381,381,386,386,385,385,344,344,383,383,349,349,396,396,395,395,49,49,334,334,323,323,372,372],"right_children":[2,6,4,12,8,14,10,20,16,28,18,26,24,36,22,44,32,34,40,38,42,50,30,48,52,62,54,56,88,94,58,160,46,212,70,68,64,130,74,242,76,100,148,78,82,60,108,114,274,402,200,110,72,122,228,334,382,332,202,116,66,206,350,-1,-1,-1,-1,-1,-1,240,236,302,162,326,80,214,174,124,90,140,86,120,84,98,118,-1,-1,364,220,92,96,-1,-1,-1,138,-1,-1,-1,-1,142,102,106,104,-1,-1,-1,-1,112,186,222,156,-1,-1,286,296,-1,-1,-1,-1,198,128,292,314,146,126,-1,-1,-1,-1,132,192,134,136,-1,-1,-1,-1,336,362,-1,-1,358,144,-1,-1,-1,-1,150,168,154,152,-1,-1,-1,-1,226,158,-1,-1,188,180,164,166,-1,-1,-1,-1,172,170,-1,-1,-1,-1,176,178,-1,-1,-1,-1,182,184,-1,-1,-1,-1,-1,-1,190,204,-1,-1,196,194,-1,-1,-1,-1,-1,-1,-1,-1,378,322,-1,-1,208,234,272,210,-1,-1,324,258,218,216,-1,-1,-1,-1,310,344,360,224,-1,-1,-1,-1,264,230,262,232,-1,-1,256,342,238,308,-1,-1,270,340,246,244,250,252,254,248,-1,-1,-1,-1,-1,-1,-1,-1,-1,-1,260,312,-1,-1,-1,-1,266,268,-1,-1,-1,-1,-1,-1,-1,-1,276,278,284,320,282,280,-1,-1,-1,-1,-1,-1,290,288,-1,-1,-1,-1,294,380,-1,-1,300,298,-1,-1,-1,-1,306,304,-1,-1,-1,-1,-1,-1,-1,-1,-1,-1,318,316,-1,-1,-1,-1,-1,-1,-1,-1,406,348,330,328,-1,-1,-1,-1,338,376,-1,404,-1,-1,-1,-1,-1,-1,-1,-1,346,392,-1,-1,-1,-1,396,352,356,354,-1,-1,-1,-1,-1,-1,-1,-1,-1,-1,366,372,368,370,-1,-1,-1,-1,374,408,-1,-1,-1,-1,-1,-1,-1,-1,386,384,394,-1,390,388,-1,-1,-1,-1,-1,-1,-1,-1,400,398,-1,-1,-1,-1,-1,-1,-1,-1,-1,-1,-1,-1],"split_conditions":[2E1,8E0,1E0,4.1E1,3.9E1,3E0,1E0,2.9E1,5.4E1,1.4E1,1.3E1,2.8E1,5.6E1,2E0,1E0,4.9E1,6.3E1,1E1,1.5E1,2.4E1,3.3E1,5E0,5E0,4.8E1,7.3E1,2.5E1,3.7E1,1.1E1,1.6E1,4E0,6E0,2.0027256E5,8.2E1,2.299541E5,1.1E1,1E0,1E0,3.5082278E5,6.3499504E4,5.969969E5,1.8E1,1.7712236E5,3.5E1,4.3E1,1.9044448E5,5.480542E5,3.5082278E5,3.043313E5,3.3535894E5,4E0,6E0,6.4E1,1.4084683E5,3.1E1,5.1589812E5,9E0,5.292281E5,5.597361E5,3.9488597E5,7.4E1,2.833528E5,1.5396361E5,3.2241384E5,-2.949373E-1,-2.814604E-1,1.293053E-1,-1.1928377E-1,-3.0851957E-1,-2.992586E-1,7.866627E4,1.8493895E5,5.25474E5,5.646935E5,2.573469E5,2.6E1,5.286751E5,3.4033703E5,5.7201006E5,3.592921E5,4.950903E5,6.318002E5,5.911334E5,4.4183003E5,1.9317986E5,3.1048794E5,-1.6833799E-1,-1.1243229E-1,2.4630903E5,9.924257E4,3.445014E5,4.086795E5,-1.4428215E-1,-1.3153096E-1,-2.718147E-1,6.226478E5,-1.52582E-1,-1.4487511E-1,-1.0697599E-1,-1.4202039E-1,6.984217E4,4.1635256E5,3.6635656E5,4.2033838E5,-1.8872465E-1,-1.64073E-1,-1.5349716E-1,-1.6320089E-1,6.984217E4,9.550226E4,6.1645306E5,6.984217E4,-1.1329643E-1,-1.3164237E-1,4.4E1,3.586671E5,-1.3070837E-1,-1.2807436E-1,-1.3285688E-1,-1.409246E-1,1.8938584E5,1.5819302E5,7.866627E4,4.9446675E5,4.100612E5,4.4481628E5,-1.2411867E-1,1.9509864E-1,-1.3837701E-1,-1.05506174E-1,3.485165E5,5.328799E5,3.2809028E5,5.1124338E5,-1.8142864E-1,-1.6309923E-1,-8.919176E-2,-2.707084E-1,1.3867353E5,2.5656414E5,-1.72652E-1,-1.8686436E-1,2.4630903E5,3.545231E5,-1.3945156E-1,-1.5763761E-1,-1.4818653E-1,-1.5450168E-1,3.631652E5,6.1645306E5,1.3867353E5,3.665125E5,-1.0822339E-1,-1.5568006E-1,-1.4121005E-1,-1.702234E-1,7.2E1,2.709395E5,-1.7748263E-1,-1.9525144E-1,1.1330996E5,1.8609958E5,4.460998E5,8.3E1,-1.9100852E-1,-1.8320064E-1,-2.1366166E-1,-1.806614E-1,5.969969E5,2.3716036E5,-9.5173925E-2,-1.5115033E-1,-1.527321E-1,-1.6851714E-1,1.9E1,4.1124447E5,-1.9174895E-1,-1.6662194E-1,-1.9602533E-1,